<?xml version="1.0"?>
<opencv_storage>
<cascade>
  <stageType>BOOST</stageType>
  <featureType>LBP</featureType>
  <height>24</height>
  <width>24</width>
  <stageParams>
    <boostType>GAB</boostType>
    <minHitRate>9.9500000476837158e-01</minHitRate>
    <maxFalseAlarm>5.0000000000000000e-01</maxFalseAlarm>
    <weightTrimRate>9.4999998807907104e-01</weightTrimRate>
    <maxDepth>1</maxDepth>
    <maxWeakCount>100</maxWeakCount></stageParams>
  <featureParams>
    <maxCatCount>256</maxCatCount>
    <featSize>1</featSize></featureParams>
  <stageNum>20</stageNum>
  <stages>
    <!-- stage 0 -->
    <_>
      <maxWeakCount>7</maxWeakCount>
      <stageThreshold>-1.9657878875732422e+00</stageThreshold>
      <weakClassifiers>
        <_>
          <internalNodes>
            0 -1 18 -234892306 -649341545 1359192646 2064630223
            -202384401 316179091 -12976177 2011164623</internalNodes>
          <leafValues>
            -7.8679108619689941e-01 -5.4347827099263668e-03</leafValues></_>
        <_>
          <internalNodes>
            0 -1 183 -146562142 -2074290026 -1055260480 1714210058
            1507752805 805724161 -1014365690 1080548327</internalNodes>
          <leafValues>
            -6.6634380817413330e-01 2.2425906360149384e-01</leafValues></_>
        <_>
          <internalNodes>
            0 -1 101 -20189554 70692578 784117304 719363726 -1476482064
            612005614 737504600 -523241669</internalNodes>
          <leafValues>
            -4.0643817186355591e-01 4.7861048579216003e-01</leafValues></_>
        <_>
          <internalNodes>
            0 -1 38 -29896826 134334466 1149665352 575070604 1669378117
            1074053250 2023377440 1476390827</internalNodes>
          <leafValues>
            -4.4732779264450073e-01 3.9639648795127869e-01</leafValues></_>
        <_>
          <internalNodes>
            0 -1 26 670566318 851788203 318767580 333419916 -486340660
            553721914 384539306 1941910447</internalNodes>
          <leafValues>
            -5.1670795679092407e-01 3.5078939795494080e-01</leafValues></_>
        <_>
          <internalNodes>
            0 -1 102 -220339990 -795750058 1286912 668309998 -936652116
            -258842619 1510578955 2009412462</internalNodes>
          <leafValues>
            -4.7560244798660278e-01 3.7213745713233948e-01</leafValues></_>
        <_>
          <internalNodes>
            0 -1 15 -1426084614 -939351405 -2139078501 -468139254
            805638226 1099120706 298019330 -447294849</internalNodes>
          <leafValues>
            -4.0491938591003418e-01 3.8199153542518616e-01</leafValues></_></weakClassifiers></_>
    <!-- stage 1 -->
    <_>
      <maxWeakCount>9</maxWeakCount>
      <stageThreshold>-1.9457397460937500e+00</stageThreshold>
      <weakClassifiers>
        <_>
          <internalNodes>
            0 -1 51 -2100481 390258751 -1995495166 1035969499 1702583151
            1926177059 -87082439 -2049</internalNodes>
          <leafValues>
            -7.0262753963470459e-01 1.1450381577014923e-01</leafValues></_>
        <_>
          <internalNodes>
            0 -1 179 -135270466 1146481526 -528252926 -855708697
            2144821858 1655345857 1086761250 -452991121</internalNodes>
          <leafValues>
            -4.6381971240043640e-01 3.2164165377616882e-01</leafValues></_>
        <_>
          <internalNodes>
            0 -1 6 -898962970 -658061325 83188939 -1923239162 1460582910
            -356924485 1254663053 1192453972</internalNodes>
          <leafValues>
            -5.0257933139801025e-01 2.9038491845130920e-01</leafValues></_>
        <_>
          <internalNodes>
            0 -1 167 -423105696 1754560554 1224822924 -413146242
            1137271984 1141178502 1801655040 -1024458765</internalNodes>
          <leafValues>
            -3.7673020362854004e-01 3.7728980183601379e-01</leafValues></_>
        <_>
          <internalNodes>
            0 -1 10 -1301567574 241598580 1107841836 -1797335026
            1375818211 1350775599 -1836176048 1449628530</internalNodes>
          <leafValues>
            -4.7749549150466919e-01 3.0099821090698242e-01</leafValues></_>
        <_>
          <internalNodes>
            0 -1 122 -127406592 348443294 -485930788 298493456
            1538165216 446187904 2140404395 -453030833</internalNodes>
          <leafValues>
            -3.7379831075668335e-01 3.8192790746688843e-01</leafValues></_>
        <_>
          <internalNodes>
            0 -1 178 -4368634 -615104577 -16843073 -134742148 1610575370
            -403177481 2055057152 -1157649349</internalNodes>
          <leafValues>
            -3.4970894455909729e-01 4.0087187290191650e-01</leafValues></_>
        <_>
          <internalNodes>
            0 -1 47 1381052096 458379663 -1185740474 962373002
            2132306921 1118390680 -141928133 733436135</internalNodes>
          <leafValues>
            -5.1164948940277100e-01 2.6393690705299377e-01</leafValues></_>
        <_>
          <internalNodes>
            0 -1 60 1934568098 613163939 -963346028 -1578120698
            1917801910 1386873217 -614304864 1447289714</internalNodes>
          <leafValues>
            -5.3437513113021851e-01 2.4550344049930573e-01</leafValues></_></weakClassifiers></_>
    <!-- stage 2 -->
    <_>
      <maxWeakCount>9</maxWeakCount>
      <stageThreshold>-1.1599419116973877e+00</stageThreshold>
      <weakClassifiers>
        <_>
          <internalNodes>
            0 -1 111 -35653795 -14682081 -1889674145 -14159531 -5535331
            -56442423 -270947588 -1191182341</internalNodes>
          <leafValues>
            -6.8537938594818115e-01 3.7037037312984467e-02</leafValues></_>
        <_>
          <internalNodes>
            0 -1 7 -172382386 -104865796 1687600518 1908716447
            -619726593 -977436428 -360596948 821079794</internalNodes>
          <leafValues>
            -5.8412867784500122e-01 1.4694824814796448e-01</leafValues></_>
        <_>
          <internalNodes>
            0 -1 138 -254942290 -755318786 -1899446644 569360314
            -302244820 350140284 1450686600 -411062293</internalNodes>
          <leafValues>
            -2.9744860529899597e-01 4.4091895222663879e-01</leafValues></_>
        <_>
          <internalNodes>
            0 -1 89 1739071697 382664701 989593469 866529001 1727799215
            -1074790402 -841024072 -1410905158</internalNodes>
          <leafValues>
            -3.0345439910888672e-01 4.2260989546775818e-01</leafValues></_>
        <_>
          <internalNodes>
            0 -1 149 -755974142 1961951016 1849503272 -1318402102
            -547477632 754007796 1039580923 -1823261137</internalNodes>
          <leafValues>
            -2.9896616935729980e-01 4.0736410021781921e-01</leafValues></_>
        <_>
          <internalNodes>
            0 -1 168 932127164 1027903766 -1786639894 -1919578082
            18709429 8430114 409946752 1299557487</internalNodes>
          <leafValues>
            -4.9876967072486877e-01 2.3243819177150726e-01</leafValues></_>
        <_>
          <internalNodes>
            0 -1 81 -523900434 924251614 101128456 2013931840 1905124085
            2008700458 1398910622 1725274990</internalNodes>
          <leafValues>
            -4.4471240043640137e-01 2.8411477804183960e-01</leafValues></_>
        <_>
          <internalNodes>
            0 -1 229 2051736340 1243529887 -452620020 1723076746
            841427261 973258891 -70693648 -453001612</internalNodes>
          <leafValues>
            -4.7074237465858459e-01 2.6394250988960266e-01</leafValues></_>
        <_>
          <internalNodes>
            0 -1 34 -200376310 859865798 1094966046 -1486954156 29459195
            -254553962 991103323 653779763</internalNodes>
          <leafValues>
            -4.6583607792854309e-01 2.8573277592658997e-01</leafValues></_></weakClassifiers></_>
    <!-- stage 3 -->
    <_>
      <maxWeakCount>11</maxWeakCount>
      <stageThreshold>-1.1190698146820068e+00</stageThreshold>
      <weakClassifiers>
        <_>
          <internalNodes>
            0 -1 37 -548143649 -573383957 218187806 -738735601
            -489565261 -1836482167 -135295676 -67111057</internalNodes>
          <leafValues>
            -6.8048781156539917e-01 5.5737704038619995e-02</leafValues></_>
        <_>
          <internalNodes>
            0 -1 205 -77631610 1347286231 1098941090 6253166 571810628
            298361058 -393951424 -218104866</internalNodes>
          <leafValues>
            -4.6597516536712646e-01 2.4353027343750000e-01</leafValues></_>
        <_>
          <internalNodes>
            0 -1 199 -440227542 548335245 -394030396 1308551696
            1527728769 1391087746 -204767937 -2013793297</internalNodes>
          <leafValues>
            -3.5654646158218384e-01 3.1374096870422363e-01</leafValues></_>
        <_>
          <internalNodes>
            0 -1 32 717958382 241520894 -1475173798 -319098450
            2025933566 730008579 -330737714 -520430978</internalNodes>
          <leafValues>
            -4.6015179157257080e-01 2.4867297708988190e-01</leafValues></_>
        <_>
          <internalNodes>
            0 -1 104 -144643352 1557300436 12888064 -1218730273
            -1306178568 1285001234 -559111547 615379238</internalNodes>
          <leafValues>
            -4.5458468794822693e-01 2.7042496204376221e-01</leafValues></_>
        <_>
          <internalNodes>
            0 -1 45 -396635102 772915500 -935135050 1653004054
            -164667294 1578832067 1758407170 -227169930</internalNodes>
          <leafValues>
            -5.0568991899490356e-01 2.2838714718818665e-01</leafValues></_>
        <_>
          <internalNodes>
            0 -1 131 -1004553734 -754979202 795410364 1005375486
            1857372124 1887188775 2138546090 -403720561</internalNodes>
          <leafValues>
            -2.7332565188407898e-01 4.3985152244567871e-01</leafValues></_>
        <_>
          <internalNodes>
            0 -1 203 -966310634 1234923697 -1182629683 1570456514
            -647086016 2073788962 1476543044 2357130</internalNodes>
          <leafValues>
            -4.3410304188728333e-01 2.7175211906433105e-01</leafValues></_>
        <_>
          <internalNodes>
            0 -1 175 -1006664900 -1229072385 1874738849 1476374120
            435007982 400293884 -1351153672 -656949825</internalNodes>
          <leafValues>
            -2.5815144181251526e-01 4.6382251381874084e-01</leafValues></_>
        <_>
          <internalNodes>
            0 -1 61 1922159494 408650200 -578600122 -1381058526
            1443021733 1824735482 57118346 1237576521</internalNodes>
          <leafValues>
            -4.2628803849220276e-01 2.9372197389602661e-01</leafValues></_>
        <_>
          <internalNodes>
            0 -1 159 -121901104 -1577533653 -536892096 -73876049
            2013226716 -33802252 -1246095440 -1470134657</internalNodes>
          <leafValues>
            -3.1427115201950073e-01 3.9057606458663940e-01</leafValues></_></weakClassifiers></_>
    <!-- stage 4 -->
    <_>
      <maxWeakCount>8</maxWeakCount>
      <stageThreshold>-1.2753698825836182e+00</stageThreshold>
      <weakClassifiers>
        <_>
          <internalNodes>
            0 -1 182 -1 1684004861 -242098426 -1059129674 -359411594
            327882023 -3809323 -184549377</internalNodes>
          <leafValues>
            -7.2544950246810913e-01 -1.0020039975643158e-01</leafValues></_>
        <_>
          <internalNodes>
            0 -1 41 -419437273 645714975 818596232 -1951467177
            1263356677 -2110799741 1884276272 -218630273</internalNodes>
          <leafValues>
            -4.6458050608634949e-01 2.4107024073600769e-01</leafValues></_>
        <_>
          <internalNodes>
            0 -1 227 -414245085 -301235249 1859602666 -1902456882
            -1412473739 1615978935 -82103516 1811513061</internalNodes>
          <leafValues>
            -4.8946654796600342e-01 2.4498908221721649e-01</leafValues></_>
        <_>
          <internalNodes>
            0 -1 83 -101318684 2008576621 -876339154 1647808424
            1939776511 1697479550 -149064179 1087840902</internalNodes>
          <leafValues>
            -4.9509909749031067e-01 2.3328122496604919e-01</leafValues></_>
        <_>
          <internalNodes>
            0 -1 220 -830534367 1760793567 -326962340 1952644047
            1162032161 2064294283 152855316 1660411445</internalNodes>
          <leafValues>
            -4.3542301654815674e-01 2.9348605871200562e-01</leafValues></_>
        <_>
          <internalNodes>
            0 -1 74 -1103296480 -1349087308 -736377265 -271257332
            1476089845 684693871 -1677591908 1058464</internalNodes>
          <leafValues>
            -6.4371824264526367e-01 1.8339242041110992e-01</leafValues></_>
        <_>
          <internalNodes>
            0 -1 72 -145056217 472904910 -1808332348 -1194278298
            -649111727 1110542377 659283264 -151259681</internalNodes>
          <leafValues>
            -3.7167549133300781e-01 3.3137130737304688e-01</leafValues></_>
        <_>
          <internalNodes>
            0 -1 114 -1308934796 -1838611009 -299499796 -84486830
            1074689893 1418592683 1636680460 1623124598</internalNodes>
          <leafValues>
            -5.1101481914520264e-01 2.3653197288513184e-01</leafValues></_></weakClassifiers></_>
    <!-- stage 5 -->
    <_>
      <maxWeakCount>12</maxWeakCount>
      <stageThreshold>-1.5192946195602417e+00</stageThreshold>
      <weakClassifiers>
        <_>
          <internalNodes>
            0 -1 33 -136316929 -6038529 -1646800393 -2108165 -340002309
            -51130193 -610535697 -2097161</internalNodes>
          <leafValues>
            -6.2588363885879517e-01 4.9056604504585266e-01</leafValues></_>
        <_>
          <internalNodes>
            0 -1 29 -1371075585 1836574607 -959302466 371890366
            2027903227 2074621662 -311149716 -580453473</internalNodes>
          <leafValues>
            -3.9959776401519775e-01 2.2330452501773834e-01</leafValues></_>
        <_>
          <internalNodes>
            0 -1 22 -1295805702 851309534 1058083820 458473382
            -950853672 922651350 -1959021734 1524432972</internalNodes>
          <leafValues>
            -4.2658641934394836e-01 2.1548020839691162e-01</leafValues></_>
        <_>
          <internalNodes>
            0 -1 4 -671287786 312474324 -564659754 -280462450
            -1262150807 -1324603882 1711968114 1743850262</internalNodes>
          <leafValues>
            -4.5435330271720886e-01 2.1382385492324829e-01</leafValues></_>
        <_>
          <internalNodes>
            0 -1 174 -1392539904 9399049 1446711812 -833951926
            2043634003 8005161 27924304 1097853846</internalNodes>
          <leafValues>
            -7.1662855148315430e-01 1.7884722352027893e-01</leafValues></_>
        <_>
          <internalNodes>
            0 -1 158 -309353691 1345339995 1235216100 1460539971
            1602364087 1083724087 229728754 -1004287189</internalNodes>
          <leafValues>
            -3.6406135559082031e-01 2.7768719196319580e-01</leafValues></_>
        <_>
          <internalNodes>
            0 -1 16 -1660965057 1646189527 1348131743 1635670606
            1657184516 580635081 -898427305 -1127285701</internalNodes>
          <leafValues>
            -3.2151582837104797e-01 3.1867149472236633e-01</leafValues></_>
        <_>
          <internalNodes>
            0 -1 119 -1908687787 752248021 1090575122 -1128222466
            509031917 479036928 1585323416 423026992</internalNodes>
          <leafValues>
            -4.5053496956825256e-01 2.2627590596675873e-01</leafValues></_>
        <_>
          <internalNodes>
            0 -1 1 782675847 1254015440 1107379255 -710246223 1939790795
            -1453603602 -452271910 -634917951</internalNodes>
          <leafValues>
            -3.1525701284408569e-01 3.3972954750061035e-01</leafValues></_>
        <_>
          <internalNodes>
            0 -1 96 -687920112 -595332582 145786339 -1682640553
            -477393667 -19363687 -108976840 786171654</internalNodes>
          <leafValues>
            -3.9241981506347656e-01 2.7788889408111572e-01</leafValues></_>
        <_>
          <internalNodes>
            0 -1 92 -1227578410 1979959663 1146509243 -645563602
            2073951477 -619894167 -1489401669 -134420414</internalNodes>
          <leafValues>
            -2.8870248794555664e-01 3.7653920054435730e-01</leafValues></_>
        <_>
          <internalNodes>
            0 -1 215 1609459489 921822701 2147467080 -402669588
            -549593353 299794422 1606397859 -771752491</internalNodes>
          <leafValues>
            -2.9525619745254517e-01 3.6209762096405029e-01</leafValues></_></weakClassifiers></_>
    <!-- stage 6 -->
    <_>
      <maxWeakCount>12</maxWeakCount>
      <stageThreshold>-1.2160358428955078e+00</stageThreshold>
      <weakClassifiers>
        <_>
          <internalNodes>
            0 -1 180 -176166945 -47247357 -687743137 -40118869 -75768069
            -206317155 -108278578 -119537989</internalNodes>
          <leafValues>
            -6.5164291858673096e-01 9.5343679189682007e-02</leafValues></_>
        <_>
          <internalNodes>
            0 -1 134 1029640444 905455461 452986877 -1617087745
            -639436361 -1084194389 390692008 -1884477107</internalNodes>
          <leafValues>
            -3.9444050192832947e-01 2.4236170947551727e-01</leafValues></_>
        <_>
          <internalNodes>
            0 -1 189 -714346810 -1059511909 1887592590 -1964867020
            1499496242 823464204 694646352 1088916458</internalNodes>
          <leafValues>
            -3.6866939067840576e-01 2.4066554009914398e-01</leafValues></_>
        <_>
          <internalNodes>
            0 -1 43 -775144530 1391183305 62652518 454963534 251775290
            1658413723 -1546226781 1658613239</internalNodes>
          <leafValues>
            -4.7644639015197754e-01 1.8866078555583954e-01</leafValues></_>
        <_>
          <internalNodes>
            0 -1 82 1369355004 1442430971 -1091309770 -76283925
            1979185150 -1074282515 -1342720273 -1622300402</internalNodes>
          <leafValues>
            -2.2882579267024994e-01 3.9575815200805664e-01</leafValues></_>
        <_>
          <internalNodes>
            0 -1 222 -975231418 -2070058482 -1048321518 1623904704
            411484785 1386193031 -745978156 -466245835</internalNodes>
          <leafValues>
            -3.7230911850929260e-01 2.7210739254951477e-01</leafValues></_>
        <_>
          <internalNodes>
            0 -1 2 -1412653426 -1894845366 20971807 -1572709602
            -70674117 -1546717045 -93668609 767607639</internalNodes>
          <leafValues>
            -4.3253612518310547e-01 2.2242620587348938e-01</leafValues></_>
        <_>
          <internalNodes>
            0 -1 105 1877532716 395584876 -187875284 -247127580
            -723363355 -511049724 -242588740 -257441398</internalNodes>
          <leafValues>
            -3.3228859305381775e-01 3.1416520476341248e-01</leafValues></_>
        <_>
          <internalNodes>
            0 -1 62 1496770830 312721750 -787020668 -476084166
            1916987109 335650961 1112572328 127623462</internalNodes>
          <leafValues>
            -4.4232851266860962e-01 2.3815475404262543e-01</leafValues></_>
        <_>
          <internalNodes>
            0 -1 17 374132326 446521614 -992341730 987136108 281504631
            931334151 923616544 1708618175</internalNodes>
          <leafValues>
            -5.5753570795059204e-01 1.7918418347835541e-01</leafValues></_>
        <_>
          <internalNodes>
            0 -1 116 1112718988 1178032023 -2080229014 360751475
            1384806860 430375062 310446169 -213046289</internalNodes>
          <leafValues>
            -3.9317080378532410e-01 2.6671656966209412e-01</leafValues></_>
        <_>
          <internalNodes>
            0 -1 11 653243174 -997830184 -1605760091 52946377
            -1047869219 -181397502 -1682966293 1162406616</internalNodes>
          <leafValues>
            -4.9948978424072266e-01 2.1023219823837280e-01</leafValues></_></weakClassifiers></_>
    <!-- stage 7 -->
    <_>
      <maxWeakCount>12</maxWeakCount>
      <stageThreshold>-1.3529912233352661e+00</stageThreshold>
      <weakClassifiers>
        <_>
          <internalNodes>
            0 -1 42 -738197569 -552095233 -719198273 -1245498471
            -83209249 2104609483 -53268486 -6292609</internalNodes>
          <leafValues>
            -6.6222763061523438e-01 -1.7064847052097321e-02</leafValues></_>
        <_>
          <internalNodes>
            0 -1 55 251268319 670012167 609264255 720769983 486608360
            -32308016 680405070 -30461057</internalNodes>
          <leafValues>
            -4.3996053934097290e-01 1.6062799096107483e-01</leafValues></_>
        <_>
          <internalNodes>
            0 -1 191 -597876927 -584114929 -133505029 -67652209
            -167784433 -7757117 -31768764 -1703342265</internalNodes>
          <leafValues>
            -3.0687600374221802e-01 2.8116261959075928e-01</leafValues></_>
        <_>
          <internalNodes>
            0 -1 200 531442970 972180813 -1916054026 1061995034
            1319812442 697061121 -367078451 1874250717</internalNodes>
          <leafValues>
            -3.7216633558273315e-01 2.3040601611137390e-01</leafValues></_>
        <_>
          <internalNodes>
            0 -1 110 805054260 -1399963273 890741148 -1142107442
            1475092812 -445912921 966491805 538195200</internalNodes>
          <leafValues>
            -6.5640634298324585e-01 1.6003067791461945e-01</leafValues></_>
        <_>
          <internalNodes>
            0 -1 31 104728829 -1504290866 -268333161 649646904
            2144734460 1376707287 719708764 213179252</internalNodes>
          <leafValues>
            -6.1560881137847900e-01 1.2828062474727631e-01</leafValues></_>
        <_>
          <internalNodes>
            0 -1 27 671079787 -1438657517 1659951886 -862023190
            728697430 -1692715005 -23026860 -940671627</internalNodes>
          <leafValues>
            -3.7426447868347168e-01 2.6359823346138000e-01</leafValues></_>
        <_>
          <internalNodes>
            0 -1 161 1843840838 -655363648 358379834 -1610365169
            1415538854 1553532936 -125254962 283862611</internalNodes>
          <leafValues>
            -4.0356266498565674e-01 2.2868259251117706e-01</leafValues></_>
        <_>
          <internalNodes>
            0 -1 157 -178525518 -209752065 -1351303638 1441242735
            -965410895 905412605 -725778768 -460079185</internalNodes>
          <leafValues>
            -2.6012939214706421e-01 3.6201915144920349e-01</leafValues></_>
        <_>
          <internalNodes>
            0 -1 14 1139409318 -1148455838 349438152 -998843908
            1891891426 1697126841 -1891902936 1374989092</internalNodes>
          <leafValues>
            -6.3023889064788818e-01 1.5485996007919312e-01</leafValues></_>
        <_>
          <internalNodes>
            0 -1 57 -1060392048 660794574 629577858 498905426 -904090113
            1066769099 433221783 -1782543422</internalNodes>
          <leafValues>
            -3.7506419420242310e-01 2.4480141699314117e-01</leafValues></_>
        <_>
          <internalNodes>
            0 -1 185 2032253668 -110100483 -1090584792 -1616299269
            1737799164 -1649084418 1995047306 -1142963990</internalNodes>
          <leafValues>
            -2.2787760198116302e-01 4.2933580279350281e-01</leafValues></_></weakClassifiers></_>
    <!-- stage 8 -->
    <_>
      <maxWeakCount>13</maxWeakCount>
      <stageThreshold>-1.3190189599990845e+00</stageThreshold>
      <weakClassifiers>
        <_>
          <internalNodes>
            0 -1 79 -71306273 -23072033 -786828833 -36748417 -69340417
            -3436019 -1012239377 -67132438</internalNodes>
          <leafValues>
            -6.4559167623519897e-01 6.3348419964313507e-02</leafValues></_>
        <_>
          <internalNodes>
            0 -1 218 1065231155 378893645 -217746475 -1745012928
            -1600841166 -1474411557 2138922485 1016976677</internalNodes>
          <leafValues>
            -4.8231106996536255e-01 1.0304526984691620e-01</leafValues></_>
        <_>
          <internalNodes>
            0 -1 166 1700180602 82498719 526319818 785396174 1473659056
            349496197 463302539 1222985554</internalNodes>
          <leafValues>
            -4.7205924987792969e-01 1.6222719848155975e-01</leafValues></_>
        <_>
          <internalNodes>
            0 -1 206 -806394779 -67113041 -272486430 350584761 838823793
            1559691263 2109695396 -408566921</internalNodes>
          <leafValues>
            -2.7814814448356628e-01 3.1260579824447632e-01</leafValues></_>
        <_>
          <internalNodes>
            0 -1 65 -168417638 344393876 -1736134436 1070251868
            394419960 522866389 -1350022644 474971722</internalNodes>
          <leafValues>
            -4.4428941607475281e-01 1.7395292222499847e-01</leafValues></_>
        <_>
          <internalNodes>
            0 -1 48 632418218 793860315 -1921603459 1400785274
            -1057791050 -292519806 463360516 760486690</internalNodes>
          <leafValues>
            -3.6701938509941101e-01 2.4187603592872620e-01</leafValues></_>
        <_>
          <internalNodes>
            0 -1 156 -1468060544 -51642504 -1346394176 -840178069
            393474742 268203515 -981717077 -403459621</internalNodes>
          <leafValues>
            -2.7458220720291138e-01 3.2790762186050415e-01</leafValues></_>
        <_>
          <internalNodes>
            0 -1 164 -961680212 -1470971886 327299392 -1118989922
            -935116604 164724744 1124740708 -180631565</internalNodes>
          <leafValues>
            -3.2651948928833008e-01 2.6644831895828247e-01</leafValues></_>
        <_>
          <internalNodes>
            0 -1 150 -968820328 -1773764492 144856512 361492541
            -523560832 1670535297 -69082460 -1074580693</internalNodes>
          <leafValues>
            -3.1375083327293396e-01 2.8778684139251709e-01</leafValues></_>
        <_>
          <internalNodes>
            0 -1 94 1523494118 1085901847 1246094378 308799821 600529847
            294881432 219642045 1691629198</internalNodes>
          <leafValues>
            -4.5522043108940125e-01 1.9837518036365509e-01</leafValues></_>
        <_>
          <internalNodes>
            0 -1 87 1289397418 -669089751 -1070580210 1677972106
            2010355523 1140880417 -1419121905 -671097412</internalNodes>
          <leafValues>
            -3.3914145827293396e-01 2.7591127157211304e-01</leafValues></_>
        <_>
          <internalNodes>
            0 -1 136 -356573615 2028302142 -1075319297 -1380286487
            876543900 -1242269700 -428098071 -2081313697</internalNodes>
          <leafValues>
            -2.6715868711471558e-01 3.5495182871818542e-01</leafValues></_>
        <_>
          <internalNodes>
            0 -1 23 -2011781282 -409304589 1359129855 -1190467642
            1611346644 1899348103 -913314980 -675458601</internalNodes>
          <leafValues>
            -3.0488666892051697e-01 3.0447342991828918e-01</leafValues></_></weakClassifiers></_>
    <!-- stage 9 -->
    <_>
      <maxWeakCount>13</maxWeakCount>
      <stageThreshold>-1.5085817575454712e+00</stageThreshold>
      <weakClassifiers>
        <_>
          <internalNodes>
            0 -1 171 -606078977 -1076513057 1217917333 -570574885
            -85088001 -81012725 -589439537 -1537</internalNodes>
          <leafValues>
            -6.3636362552642822e-01 2.1472392976284027e-01</leafValues></_>
        <_>
          <internalNodes>
            0 -1 152 -555825371 2010962353 -631469155 224220964
            -778091608 -173358718 -1750376338 672647714</internalNodes>
          <leafValues>
            -4.3677219748497009e-01 1.5310259163379669e-01</leafValues></_>
        <_>
          <internalNodes>
            0 -1 20 -1497650880 532126518 1311446516 1859555757
            457920309 937638798 -625120512 985838622</internalNodes>
          <leafValues>
            -4.9656754732131958e-01 1.5376776456832886e-01</leafValues></_>
        <_>
          <internalNodes>
            0 -1 219 -1912639707 -9699394 -285218244 -4227209
            -1359008401 -939540619 2138537831 -1904279681</internalNodes>
          <leafValues>
            -2.4676506221294403e-01 3.4333848953247070e-01</leafValues></_>
        <_>
          <internalNodes>
            0 -1 9 1995368590 974825594 815895907 757788878 817306356
            1071841457 1479634036 619155861</internalNodes>
          <leafValues>
            -4.7702229022979736e-01 1.5659284591674805e-01</leafValues></_>
        <_>
          <internalNodes>
            0 -1 44 79116466 583145694 -1592663270 602117452 1115799600
            1669449993 287717380 1988931952</internalNodes>
          <leafValues>
            -6.2078428268432617e-01 1.4331969618797302e-01</leafValues></_>
        <_>
          <internalNodes>
            0 -1 214 -421131198 1593700431 -842870521 2039959939
            -1451395242 1774290159 991329540 175115082</internalNodes>
          <leafValues>
            -5.0061184167861938e-01 1.6769607365131378e-01</leafValues></_>
        <_>
          <internalNodes>
            0 -1 208 -807011 16777213 -217108 -1577095426 -1619156994
            -771981447 -1216484727 -235690134</internalNodes>
          <leafValues>
            -2.3902601003646851e-01 3.7118479609489441e-01</leafValues></_>
        <_>
          <internalNodes>
            0 -1 140 -225258880 -1756765698 -1014847220 492486804
            686625754 211972716 1199839842 -673449250</internalNodes>
          <leafValues>
            -3.3140537142753601e-01 2.9383659362792969e-01</leafValues></_>
        <_>
          <internalNodes>
            0 -1 184 1039599160 1760648693 -452851702 -540172182
            1351522544 277922881 856582686 1990170222</internalNodes>
          <leafValues>
            -3.5446298122406006e-01 2.6337924599647522e-01</leafValues></_>
        <_>
          <internalNodes>
            0 -1 98 -1527222984 -761871886 -788506715 1171833155
            1661312211 464195781 -2096558405 103825768</internalNodes>
          <leafValues>
            -4.8450872302055359e-01 1.9208580255508423e-01</leafValues></_>
        <_>
          <internalNodes>
            0 -1 106 -195591198 823849519 268616086 852968134 2061280147
            1556779353 2036847454 -211355677</internalNodes>
          <leafValues>
            -3.0145069956779480e-01 3.0769184231758118e-01</leafValues></_>
        <_>
          <internalNodes>
            0 -1 160 1505448308 -1346563715 1662595318 937136187
            -1870038722 -324324720 479197565 -1675412185</internalNodes>
          <leafValues>
            -3.0185472965240479e-01 3.0804768204689026e-01</leafValues></_></weakClassifiers></_>
    <!-- stage 10 -->
    <_>
      <maxWeakCount>11</maxWeakCount>
      <stageThreshold>-1.2516263723373413e+00</stageThreshold>
      <weakClassifiers>
        <_>
          <internalNodes>
            0 -1 210 -528389 -246033429 -49948705 -283147922 -172239697
            -1175989994 2022697679 -36720904</internalNodes>
          <leafValues>
            -6.5578269958496094e-01 -7.9934746026992798e-02</leafValues></_>
        <_>
          <internalNodes>
            0 -1 0 741244779 -1900624842 -1622107811 -1932330817
            1221797583 2065939144 -68978439 1222108771</internalNodes>
          <leafValues>
            -4.6732282638549805e-01 1.1317547410726547e-01</leafValues></_>
        <_>
          <internalNodes>
            0 -1 170 -1892744832 264632286 -1915570178 -1029740327
            927815349 477002758 1254348835 888901411</internalNodes>
          <leafValues>
            -4.5789644122123718e-01 1.7460651695728302e-01</leafValues></_>
        <_>
          <internalNodes>
            0 -1 30 73401042 2123808240 1238631574 -1450691580
            1126647556 1840775352 1585585380 1282701717</internalNodes>
          <leafValues>
            -5.7323569059371948e-01 1.8361373245716095e-01</leafValues></_>
        <_>
          <internalNodes>
            0 -1 88 1461496182 -565248268 -1075238089 -353698120
            -1484918825 1987575803 -33658021 -287458086</internalNodes>
          <leafValues>
            -2.7710965275764465e-01 2.9069796204566956e-01</leafValues></_>
        <_>
          <internalNodes>
            0 -1 46 183896822 186404889 -1677659617 1620185990
            1343243105 1059719257 1880105804 1193019911</internalNodes>
          <leafValues>
            -5.6495052576065063e-01 1.5922552347183228e-01</leafValues></_>
        <_>
          <internalNodes>
            0 -1 5 173227598 983047507 21668742 -1878570944 1971325682
            -912471934 -2105959087 1428628819</internalNodes>
          <leafValues>
            -4.9683013558387756e-01 1.5996541082859039e-01</leafValues></_>
        <_>
          <internalNodes>
            0 -1 144 -86334463 2142853888 -1877462590 -1131130763
            1212883568 75542922 2133721636 544665951</internalNodes>
          <leafValues>
            -5.1513475179672241e-01 1.6387408971786499e-01</leafValues></_>
        <_>
          <internalNodes>
            0 -1 127 -1495076440 1387299046 480313842 2108424272
            651050788 -1480973820 -443698263 -2132331093</internalNodes>
          <leafValues>
            -3.6614316701889038e-01 2.4721361696720123e-01</leafValues></_>
        <_>
          <internalNodes>
            0 -1 148 -1549809428 1520099526 -250797808 1330107174
            -859147370 2028904630 51061637 1106492158</internalNodes>
          <leafValues>
            -3.6759644746780396e-01 2.4036970734596252e-01</leafValues></_>
        <_>
          <internalNodes>
            0 -1 77 -285238353 2071953399 -67195035 -1242972769
            1845190644 -150994945 1974991356 -2010237440</internalNodes>
          <leafValues>
            -2.8824758529663086e-01 3.4669965505599976e-01</leafValues></_></weakClassifiers></_>
    <!-- stage 11 -->
    <_>
      <maxWeakCount>12</maxWeakCount>
      <stageThreshold>-1.5693465471267700e+00</stageThreshold>
      <weakClassifiers>
        <_>
          <internalNodes>
            0 -1 58 -18882593 -115506217 -586460705 -43269665 -125046853
            -1077247237 -341877761 -3276881</internalNodes>
          <leafValues>
            -6.2898713350296021e-01 1.5822784602642059e-01</leafValues></_>
        <_>
          <internalNodes>
            0 -1 213 1733237559 758957383 1595103284 1069214430
            675965718 717700091 1799399828 179750360</internalNodes>
          <leafValues>
            -4.7779572010040283e-01 1.0217062383890152e-01</leafValues></_>
        <_>
          <internalNodes>
            0 -1 63 747641390 411837020 559467564 1317701818 1313043221
            964759657 1737430276 -498687836</internalNodes>
          <leafValues>
            -5.1403462886810303e-01 1.4360946416854858e-01</leafValues></_>
        <_>
          <internalNodes>
            0 -1 204 243010578 -736829156 -771585540 81443726 915762020
            1998693009 11479336 342986688</internalNodes>
          <leafValues>
            -5.6412172317504883e-01 1.6304746270179749e-01</leafValues></_>
        <_>
          <internalNodes>
            0 -1 123 1720133424 377849181 -713490177 95719879 -771528643
            462660227 982363128 250016200</internalNodes>
          <leafValues>
            -4.1280424594879150e-01 1.9361388683319092e-01</leafValues></_>
        <_>
          <internalNodes>
            0 -1 56 637689654 -1517371045 -518924692 -1932655963
            965412863 1979886003 1300604655 337647925</internalNodes>
          <leafValues>
            -5.2137035131454468e-01 1.6045537590980530e-01</leafValues></_>
        <_>
          <internalNodes>
            0 -1 171 -878187723 1056292094 -872448300 -302071944 -146817
            259653503 1576922606 -39059689</internalNodes>
          <leafValues>
            -2.5311329960823059e-01 3.4132486581802368e-01</leafValues></_>
        <_>
          <internalNodes>
            0 -1 129 1566235778 1623552339 -1426015680 -1580936052
            1775053687 612647722 1502508595 842094156</internalNodes>
          <leafValues>
            -4.4885346293449402e-01 1.9629862904548645e-01</leafValues></_>
        <_>
          <internalNodes>
            0 -1 40 -887757894 12980547 1264122 -1175042825 856890855
            925182385 677616012 1441038543</internalNodes>
          <leafValues>
            -3.8812965154647827e-01 2.1631772816181183e-01</leafValues></_>
        <_>
          <internalNodes>
            0 -1 66 -1225621909 -1528915538 -2126405202 -294630382
            -251172825 791326720 -105940307 -1174486202</internalNodes>
          <leafValues>
            -3.5385265946388245e-01 2.5613853335380554e-01</leafValues></_>
        <_>
          <internalNodes>
            0 -1 225 -808899300 1213584026 1527231574 -2147057271
            -1300140172 -1736392670 1955198240 1557151064</internalNodes>
          <leafValues>
            -5.5467307567596436e-01 1.6367036104202271e-01</leafValues></_>
        <_>
          <internalNodes>
            0 -1 25 798518003 -694566403 -620510638 -196696609
            1221222241 2139750535 -1965037246 2012248365</internalNodes>
          <leafValues>
            -4.1048553586006165e-01 2.1642839908599854e-01</leafValues></_></weakClassifiers></_>
    <!-- stage 12 -->
    <_>
      <maxWeakCount>13</maxWeakCount>
      <stageThreshold>-1.4550001621246338e+00</stageThreshold>
      <weakClassifiers>
        <_>
          <internalNodes>
            0 -1 12 -36175877 1377558823 1434502397 -144186805
            -212351235 1354884235 -1975257300 -2102529</internalNodes>
          <leafValues>
            -6.5702104568481445e-01 -6.7545302212238312e-02</leafValues></_>
        <_>
          <internalNodes>
            0 -1 224 2078277561 13602907 50442376 -1378420458 -643841285
            -523042109 -911737784 -779124824</internalNodes>
          <leafValues>
            -3.4037697315216064e-01 2.1273092925548553e-01</leafValues></_>
        <_>
          <internalNodes>
            0 -1 3 116133416 713429524 -1854401153 -1362433274 146854301
            -608042829 2034465540 1617196884</internalNodes>
          <leafValues>
            -6.9770771265029907e-01 1.0548411309719086e-01</leafValues></_>
        <_>
          <internalNodes>
            0 -1 133 258746448 217354557 -1458436686 -375612287
            461377907 1612792456 34145032 181025301</internalNodes>
          <leafValues>
            -6.0361927747726440e-01 1.6398859024047852e-01</leafValues></_>
        <_>
          <internalNodes>
            0 -1 54 -403805249 2113257422 -1073811843 -152834049
            -537625602 -1217118434 -29436806 -109584418</internalNodes>
          <leafValues>
            -2.3894450068473816e-01 3.4579014778137207e-01</leafValues></_>
        <_>
          <internalNodes>
            0 -1 8 776613411 581621950 421464963 102155272 1762130038
            877902001 1961021558 1285583184</internalNodes>
          <leafValues>
            -6.3508969545364380e-01 1.3673365116119385e-01</leafValues></_>
        <_>
          <internalNodes>
            0 -1 107 1981730604 822219276 38162443 718168728 1955814240
            2038564875 -131652724 -2100630720</internalNodes>
          <leafValues>
            -4.0322256088256836e-01 1.8366123735904694e-01</leafValues></_>
        <_>
          <internalNodes>
            0 -1 147 -47198502 -171573636 -16851148 1505672868
            -1879343115 -1539375499 1031143115 -531372709</internalNodes>
          <leafValues>
            -2.2270257771015167e-01 3.7189581990242004e-01</leafValues></_>
        <_>
          <internalNodes>
            0 -1 21 -1856278701 35245271 1092043842 990254159 841013093
            129493042 520494644 766523592</internalNodes>
          <leafValues>
            -4.3222168087959290e-01 1.9761459529399872e-01</leafValues></_>
        <_>
          <internalNodes>
            0 -1 139 -416626888 -1135730674 -1826596478 1934332091
            975297438 1128105994 1770287518 -1821441355</internalNodes>
          <leafValues>
            -2.9899740219116211e-01 2.9446771740913391e-01</leafValues></_>
        <_>
          <internalNodes>
            0 -1 176 -605329344 -1648472852 2096905051 1195326911
            -5834791 -1107296769 -42486339 -774119521</internalNodes>
          <leafValues>
            -2.2588552534580231e-01 3.8398346304893494e-01</leafValues></_>
        <_>
          <internalNodes>
            0 -1 192 1320234672 -1942227489 -1660518198 1816457494
            2072932785 33562777 1233858591 1640332918</internalNodes>
          <leafValues>
            -4.5155563950538635e-01 2.0350512862205505e-01</leafValues></_>
        <_>
          <internalNodes>
            0 -1 228 -33655035 1150750810 22798278 597590640 -1315177834
            1082343555 -519318547 -1641280699</internalNodes>
          <leafValues>
            -3.8792306184768677e-01 2.2911876440048218e-01</leafValues></_></weakClassifiers></_>
    <!-- stage 13 -->
    <_>
      <maxWeakCount>13</maxWeakCount>
      <stageThreshold>-1.5145899057388306e+00</stageThreshold>
      <weakClassifiers>
        <_>
          <internalNodes>
            0 -1 145 -45614113 -1650335567 84001751 -137899629
            -576979009 -1180893097 -909574979 -1159732257</internalNodes>
          <leafValues>
            -6.5157419443130493e-01 -4.5045044273138046e-02</leafValues></_>
        <_>
          <internalNodes>
            0 -1 169 -873806240 -892614366 957607104 -1114673063
            698189952 1577332490 827959035 -733484151</internalNodes>
          <leafValues>
            -3.5816493630409241e-01 1.7808690667152405e-01</leafValues></_>
        <_>
          <internalNodes>
            0 -1 181 1263765356 9632222 -986063710 -495333480 1355491368
            894657165 2038883104 1009005078</internalNodes>
          <leafValues>
            -5.4385942220687866e-01 1.2761048972606659e-01</leafValues></_>
        <_>
          <internalNodes>
            0 -1 137 -1425764060 2014204571 1141515118 -2089869138
            1158887857 620995201 -1554013210 -1514717692</internalNodes>
          <leafValues>
            -3.3754086494445801e-01 2.4597537517547607e-01</leafValues></_>
        <_>
          <internalNodes>
            0 -1 71 1252848806 5317081 -259616596 240538075 1884454354
            831063945 -767022622 1154841196</internalNodes>
          <leafValues>
            -4.8585346341133118e-01 1.5170145034790039e-01</leafValues></_>
        <_>
          <internalNodes>
            0 -1 223 -1109046521 1837200268 1363428136 -500249134
            -68668581 664273193 2049530388 2017882997</internalNodes>
          <leafValues>
            -4.5910972356796265e-01 1.8430577218532562e-01</leafValues></_>
        <_>
          <internalNodes>
            0 -1 80 401580332 -1107281869 25383563 1026609859 1619180589
            -1143174991 1249433199 142491164</internalNodes>
          <leafValues>
            -4.3976366519927979e-01 1.8010416626930237e-01</leafValues></_>
        <_>
          <internalNodes>
            0 -1 177 -142683855 -1694368263 527859443 2146135284
            930034646 803534191 188560857 -1732284937</internalNodes>
          <leafValues>
            -2.3485444486141205e-01 3.6170628666877747e-01</leafValues></_>
        <_>
          <internalNodes>
            0 -1 59 759444042 150212666 85180932 678694980 1233853185
            1704784691 -754677168 1105569872</internalNodes>
          <leafValues>
            -7.0518499612808228e-01 1.2313448637723923e-01</leafValues></_>
        <_>
          <internalNodes>
            0 -1 143 -554187082 -151392898 -537137488 -1209618755
            -46893284 -1619924104 -1780437874 -1007737933</internalNodes>
          <leafValues>
            -2.4439831078052521e-01 3.5322555899620056e-01</leafValues></_>
        <_>
          <internalNodes>
            0 -1 50 60079842 1027988893 285458655 1941969044 1410410910
            1926676699 -527760918 876065334</internalNodes>
          <leafValues>
            -3.3444586396217346e-01 2.5622633099555969e-01</leafValues></_>
        <_>
          <internalNodes>
            0 -1 221 -1501622971 906164684 1568805394 1456603587
            -1161086607 -1715568509 1256989204 677177349</internalNodes>
          <leafValues>
            -5.1919364929199219e-01 1.6819955408573151e-01</leafValues></_>
        <_>
          <internalNodes>
            0 -1 118 1908657858 -1250282549 2079141805 -1082688090
            -1095139451 1194704765 -1410039811 -553960050</internalNodes>
          <leafValues>
            -2.5231561064720154e-01 3.7782457470893860e-01</leafValues></_></weakClassifiers></_>
    <!-- stage 14 -->
    <_>
      <maxWeakCount>13</maxWeakCount>
      <stageThreshold>-1.6498783826828003e+00</stageThreshold>
      <weakClassifiers>
        <_>
          <internalNodes>
            0 -1 194 -8394753 -538979449 1359123755 -137104403 310901418
            -1752178037 -353384049 -873467425</internalNodes>
          <leafValues>
            -6.2737429141998291e-01 1.5483871102333069e-01</leafValues></_>
        <_>
          <internalNodes>
            0 -1 216 755568311 -1525165625 1494465815 -134252084
            -912267073 694665608 564910765 -624239628</internalNodes>
          <leafValues>
            -3.2567402720451355e-01 2.4700681865215302e-01</leafValues></_>
        <_>
          <internalNodes>
            0 -1 187 -540897488 398948382 336683008 -1688948462
            763502772 90100748 1811441736 1349988043</internalNodes>
          <leafValues>
            -3.6858290433883667e-01 2.0886878669261932e-01</leafValues></_>
        <_>
          <internalNodes>
            0 -1 28 2145312703 -142823681 -1074331652 2142699518
            -1090619907 -134250625 -2730241 -632358145</internalNodes>
          <leafValues>
            -1.9798170030117035e-01 4.1121113300323486e-01</leafValues></_>
        <_>
          <internalNodes>
            0 -1 122 -264966464 -1698636646 -921116472 -2117679599
            1423877795 2045851696 -69469633 -1495284054</internalNodes>
          <leafValues>
            -2.8891977667808533e-01 2.8913965821266174e-01</leafValues></_>
        <_>
          <internalNodes>
            0 -1 135 100721780 -779729199 -268381962 1305540407
            1889227339 -1073254206 1894775389 1813061989</internalNodes>
          <leafValues>
            -3.7206178903579712e-01 2.4474786221981049e-01</leafValues></_>
        <_>
          <internalNodes>
            0 -1 52 -234150426 181953843 -1050328135 -1914560362
            2017542338 1109869315 -1735886806 527813598</internalNodes>
          <leafValues>
            -3.6764016747474670e-01 2.4136225879192352e-01</leafValues></_>
        <_>
          <internalNodes>
            0 -1 197 -1285001360 5566466 -1844526130 -842265638
            -1156943240 270209283 1007622243 563383270</internalNodes>
          <leafValues>
            -5.3926485776901245e-01 1.6513040661811829e-01</leafValues></_>
        <_>
          <internalNodes>
            0 -1 24 -1941699139 1206452562 -799832482 1054494931
            964806673 1945257059 -1467652084 1693473637</internalNodes>
          <leafValues>
            -4.7888931632041931e-01 1.8653859198093414e-01</leafValues></_>
        <_>
          <internalNodes>
            0 -1 108 2024128288 -559655915 1568670489 -648603425
            -58517775 1543553387 1480731391 568797321</internalNodes>
          <leafValues>
            -3.6790156364440918e-01 2.5630688667297363e-01</leafValues></_>
        <_>
          <internalNodes>
            0 -1 212 -79098024 -1289906734 -129896162 801260182
            684278260 272859288 -484447764 2089689604</internalNodes>
          <leafValues>
            -4.2574721574783325e-01 2.0123365521430969e-01</leafValues></_>
        <_>
          <internalNodes>
            0 -1 86 -445928394 -194642026 -1418823929 -1277429258
            -596218714 -683712513 1029387769 -171738369</internalNodes>
          <leafValues>
            -2.5345292687416077e-01 3.7522920966148376e-01</leafValues></_>
        <_>
          <internalNodes>
            0 -1 121 -739386714 -706232322 1610546881 -1443905682
            -1350699333 2004876158 801084683 -404244049</internalNodes>
          <leafValues>
            -2.3485200107097626e-01 3.9387923479080200e-01</leafValues></_></weakClassifiers></_>
    <!-- stage 15 -->
    <_>
      <maxWeakCount>13</maxWeakCount>
      <stageThreshold>-1.3523129224777222e+00</stageThreshold>
      <weakClassifiers>
        <_>
          <internalNodes>
            0 -1 195 -147588609 1096179901 -515780221 -540095045
            -997987422 278873506 -1050434325 -3146773</internalNodes>
          <leafValues>
            -6.5118372440338135e-01 -4.5207954943180084e-02</leafValues></_>
        <_>
          <internalNodes>
            0 -1 64 -1497461393 844616082 -669523956 -1577659891
            571002389 2032089229 -1599217852 -494002887</internalNodes>
          <leafValues>
            -4.3151754140853882e-01 1.1735854297876358e-01</leafValues></_>
        <_>
          <internalNodes>
            0 -1 128 -726420006 771206782 -1078186593 -1677960017
            -1921001475 1690269647 -1266723286 -1957616149</internalNodes>
          <leafValues>
            -2.6059883832931519e-01 2.9550701379776001e-01</leafValues></_>
        <_>
          <internalNodes>
            0 -1 13 -1501503490 541065290 -1559920370 728024192
            1922259317 73280010 505568012 295715767</internalNodes>
          <leafValues>
            -5.3087133169174194e-01 1.4989733695983887e-01</leafValues></_>
        <_>
          <internalNodes>
            0 -1 78 1685759260 1376866658 -1827649143 -2102083430
            97434129 940511616 146428888 108072452</internalNodes>
          <leafValues>
            -5.1470565795898438e-01 1.8538509309291840e-01</leafValues></_>
        <_>
          <internalNodes>
            0 -1 190 -1135515544 1712345221 1493374333 1331321676
            29969292 1806664322 512977909 -1131184132</internalNodes>
          <leafValues>
            -3.5302451252937317e-01 2.3644995689392090e-01</leafValues></_>
        <_>
          <internalNodes>
            0 -1 76 -105918870 -1644779783 1006583772 -672942088
            2004762031 1423409143 -2874018 -10752385</internalNodes>
          <leafValues>
            -2.3698820173740387e-01 3.8419368863105774e-01</leafValues></_>
        <_>
          <internalNodes>
            0 -1 15 580298170 672059931 4211114 604037067 809828631
            713517099 -1146153934 1683021409</internalNodes>
          <leafValues>
            -5.9761047363281250e-01 1.5932314097881317e-01</leafValues></_>
        <_>
          <internalNodes>
            0 -1 117 1123860708 226446008 -1862189818 -92094409
            472521530 1015730298 -1971048883 372616961</internalNodes>
          <leafValues>
            -4.9351316690444946e-01 1.7481879889965057e-01</leafValues></_>
        <_>
          <internalNodes>
            0 -1 154 -1554247548 1994158145 -670912251 -270630784
            -1970574936 2010317187 377912204 598899505</internalNodes>
          <leafValues>
            -4.0573292970657349e-01 2.2211290895938873e-01</leafValues></_>
        <_>
          <internalNodes>
            0 -1 226 -1525796996 -1526374344 -733773734 1818117010
            1377335984 1653121162 -1562755020 1424410817</internalNodes>
          <leafValues>
            -4.9204900860786438e-01 1.7966440320014954e-01</leafValues></_>
        <_>
          <internalNodes>
            0 -1 151 -418192356 -1427607291 503382097 1289511815
            640194985 1527751819 237703468 -1006200522</internalNodes>
          <leafValues>
            -3.5148343443870544e-01 2.5498420000076294e-01</leafValues></_>
        <_>
          <internalNodes>
            0 -1 124 782653315 1455038857 1346395034 496635975 819394961
            -1433862105 -1298473828 678046848</internalNodes>
          <leafValues>
            -4.6060860157012939e-01 2.1393427252769470e-01</leafValues></_></weakClassifiers></_>
    <!-- stage 16 -->
    <_>
      <maxWeakCount>12</maxWeakCount>
      <stageThreshold>-1.2119081020355225e+00</stageThreshold>
      <weakClassifiers>
        <_>
          <internalNodes>
            0 -1 211 -746869249 -168561665 1359200735 -113260777
            1613482987 -45406070 -593783841 -16966</internalNodes>
          <leafValues>
            -6.3114982843399048e-01 1.4114114642143250e-01</leafValues></_>
        <_>
          <internalNodes>
            0 -1 162 -129530106 299475202 561014225 -1224568555
            -1474857752 -410942966 -1182259576 989065936</internalNodes>
          <leafValues>
            -4.0339261293411255e-01 1.5546587109565735e-01</leafValues></_>
        <_>
          <internalNodes>
            0 -1 202 -1041560314 1942147137 1095881695 1755273242
            -1231403774 -343900001 -1692718511 419257311</internalNodes>
          <leafValues>
            -4.4192582368850708e-01 1.8214711546897888e-01</leafValues></_>
        <_>
          <internalNodes>
            0 -1 188 -1077469382 252412189 84957572 448938146
            -1866071446 218775819 122846293 216897703</internalNodes>
          <leafValues>
            -4.6540236473083496e-01 1.6388867795467377e-01</leafValues></_>
        <_>
          <internalNodes>
            0 -1 97 -1472035776 1932939682 1115998281 -325575801
            -1584676144 245402343 1312360119 -1920969789</internalNodes>
          <leafValues>
            -3.3444103598594666e-01 2.6081106066703796e-01</leafValues></_>
        <_>
          <internalNodes>
            0 -1 186 -380634238 385415423 -25254539 -34476036 662025631
            -168355849 -13205601 -185603645</internalNodes>
          <leafValues>
            -1.9652149081230164e-01 4.3479949235916138e-01</leafValues></_>
        <_>
          <internalNodes>
            0 -1 207 479868328 1589353 -754970290 1124110730 1351242801
            67207361 -1052050792 1615080956</internalNodes>
          <leafValues>
            -5.9612828493118286e-01 1.4591819047927856e-01</leafValues></_>
        <_>
          <internalNodes>
            0 -1 85 -357095702 451772459 -786167740 1770871694
            1789378524 651772040 -1062543027 126582494</internalNodes>
          <leafValues>
            -3.6325243115425110e-01 2.4554431438446045e-01</leafValues></_>
        <_>
          <internalNodes>
            0 -1 109 775744370 -117653505 738148223 736604150 -17018
            -1860302857 -168315075 -1006960690</internalNodes>
          <leafValues>
            -2.7798336744308472e-01 3.4673821926116943e-01</leafValues></_>
        <_>
          <internalNodes>
            0 -1 93 -971280793 853302260 -14897174 2079026558 371146199
            -1757972683 -414208614 -1771046333</internalNodes>
          <leafValues>
            -2.5557222962379456e-01 3.6814546585083008e-01</leafValues></_>
        <_>
          <internalNodes>
            0 -1 75 1174412492 -1436266473 286818336 243601843
            -1995238858 899910129 -1610395375 2097454978</internalNodes>
          <leafValues>
            -5.4394710063934326e-01 1.7871958017349243e-01</leafValues></_>
        <_>
          <internalNodes>
            0 -1 84 357945548 78385481 -2061357837 600315253 -1593059075
            1367802256 -2093432313 334561696</internalNodes>
          <leafValues>
            -4.6115794777870178e-01 2.0970989763736725e-01</leafValues></_></weakClassifiers></_>
    <!-- stage 17 -->
    <_>
      <maxWeakCount>14</maxWeakCount>
      <stageThreshold>-1.4866189956665039e+00</stageThreshold>
      <weakClassifiers>
        <_>
          <internalNodes>
            0 -1 49 -573049929 2113398955 1737873885 -136455219
            -905762625 -1449639746 1921751775 -4200713</internalNodes>
          <leafValues>
            -6.4449608325958252e-01 4.6979866921901703e-02</leafValues></_>
        <_>
          <internalNodes>
            0 -1 201 1174078221 1943126359 -182930475 2044982742
            369148243 1019340323 1514764596 641741904</internalNodes>
          <leafValues>
            -5.4507219791412354e-01 7.2954066097736359e-02</leafValues></_>
        <_>
          <internalNodes>
            0 -1 112 821298112 -1359175546 831472270 -293322150
            1074942275 -1297311742 -729755310 617900278</internalNodes>
          <leafValues>
            -5.6965851783752441e-01 1.3488209247589111e-01</leafValues></_>
        <_>
          <internalNodes>
            0 -1 132 -536903902 -1321209859 805270565 -135266529
            -1644710497 364902398 1476361423 -880804873</internalNodes>
          <leafValues>
            -1.8228471279144287e-01 4.1810569167137146e-01</leafValues></_>
        <_>
          <internalNodes>
            0 -1 36 729486523 -1421577342 2106183895 1390330014
            -1820243743 2052145682 -1256140763 51500903</internalNodes>
          <leafValues>
            -3.7672820687294006e-01 2.2229680418968201e-01</leafValues></_>
        <_>
          <internalNodes>
            0 -1 130 -1189407594 1374617593 -1355010548 -540181790
            1870514964 502765367 1199111546 -1052771958</internalNodes>
          <leafValues>
            -2.5161164999008179e-01 3.4072497487068176e-01</leafValues></_>
        <_>
          <internalNodes>
            0 -1 125 698096160 -1676899754 -1870524009 -107731757
            -368381347 -209108864 -1069798715 807744772</internalNodes>
          <leafValues>
            -5.1323872804641724e-01 1.8245287239551544e-01</leafValues></_>
        <_>
          <internalNodes>
            0 -1 70 -362162321 -380227593 -449 -1141047299 -8440331
            -1250058378 -647012945 -1991915529</internalNodes>
          <leafValues>
            -2.4907280504703522e-01 3.6214914917945862e-01</leafValues></_>
        <_>
          <internalNodes>
            0 -1 35 -53011465 2013097787 -1090723265 498024046
            1996478430 -318906507 931130814 -607142185</internalNodes>
          <leafValues>
            -1.7345157265663147e-01 5.2444493770599365e-01</leafValues></_>
        <_>
          <internalNodes>
            0 -1 141 663658540 1145721108 1368605182 642188124
            -1635534128 1754141834 -1939298357 877082002</internalNodes>
          <leafValues>
            -4.2544537782669067e-01 2.2620134055614471e-01</leafValues></_>
        <_>
          <internalNodes>
            0 -1 99 1845421328 1964816538 -2128457598 -1101595017
            411595817 -1395932367 255863073 -1404075293</internalNodes>
          <leafValues>
            -3.1249839067459106e-01 2.9851713776588440e-01</leafValues></_>
        <_>
          <internalNodes>
            0 -1 73 -1530726802 348442761 1611776260 1124782214
            163668709 583663819 -903849832 -880889300</internalNodes>
          <leafValues>
            -3.4985861182212830e-01 2.7977031469345093e-01</leafValues></_>
        <_>
          <internalNodes>
            0 -1 90 930220357 1993583411 -1052573273 84634109
            -1027650965 -1813265919 446295649 50342469</internalNodes>
          <leafValues>
            -4.7317722439765930e-01 2.1123944222927094e-01</leafValues></_>
        <_>
          <internalNodes>
            0 -1 163 2088074499 1890435068 2092953212 -135005071
            -33607748 687308636 -17400582 -1468392785</internalNodes>
          <leafValues>
            -2.8934559226036072e-01 3.5960599780082703e-01</leafValues></_></weakClassifiers></_>
    <!-- stage 18 -->
    <_>
      <maxWeakCount>13</maxWeakCount>
      <stageThreshold>-1.2744250297546387e+00</stageThreshold>
      <weakClassifiers>
        <_>
          <internalNodes>
            0 -1 196 -405802529 -578858561 1413727711 -808001424
            -518679809 -293355318 -924071530 -202376241</internalNodes>
          <leafValues>
            -6.4980775117874146e-01 -1.9646366126835346e-03</leafValues></_>
        <_>
          <internalNodes>
            0 -1 53 619443506 2014435099 1417875641 -1263207521
            -184534662 598515855 1636494133 -208344219</internalNodes>
          <leafValues>
            -4.1143655776977539e-01 1.3914278149604797e-01</leafValues></_>
        <_>
          <internalNodes>
            0 -1 217 800341845 -1528348183 -767437535 483525067
            1914576993 -1866334038 2021806489 1147131153</internalNodes>
          <leafValues>
            -4.2905393242835999e-01 1.7344139516353607e-01</leafValues></_>
        <_>
          <internalNodes>
            0 -1 115 -50744668 -1232792640 -1388309895 -921071253
            -792500990 915030185 1489569678 -464926038</internalNodes>
          <leafValues>
            -3.0186438560485840e-01 2.6243719458580017e-01</leafValues></_>
        <_>
          <internalNodes>
            0 -1 146 46950432 2093269458 1167677885 188899768 290070736
            2073133059 127993405 1892279190</internalNodes>
          <leafValues>
            -4.4272401928901672e-01 2.0446357131004333e-01</leafValues></_>
        <_>
          <internalNodes>
            0 -1 95 1750385688 412785086 -250511297 -2033614321
            -1481263763 -20313208 134832659 -699552768</internalNodes>
          <leafValues>
            -3.5834610462188721e-01 2.4216552078723907e-01</leafValues></_>
        <_>
          <internalNodes>
            0 -1 173 -567346953 348114302 -25280350 -51220843 1836571640
            -1242171395 -429443880 -741351666</internalNodes>
          <leafValues>
            -1.9523343443870544e-01 4.4570884108543396e-01</leafValues></_>
        <_>
          <internalNodes>
            0 -1 69 50339362 386031773 -507178169 -1768113347 1353548656
            2072058265 -100202324 140861712</internalNodes>
          <leafValues>
            -5.1038974523544312e-01 1.8636642396450043e-01</leafValues></_>
        <_>
          <internalNodes>
            0 -1 126 1646586623 -1536794941 -1073795085 -1276743809
            -1435885626 -167776385 -1082245683 -2144629343</internalNodes>
          <leafValues>
            -2.8890934586524963e-01 3.3614715933799744e-01</leafValues></_>
        <_>
          <internalNodes>
            0 -1 120 -74919370 -259064161 2112364346 531326570 -9044012
            905887615 803182857 -112265519</internalNodes>
          <leafValues>
            -2.7978214621543884e-01 3.8626784086227417e-01</leafValues></_>
        <_>
          <internalNodes>
            0 -1 198 -1293592568 332132635 -1316372285 -985132862
            -133674331 1493410024 -1878974216 1860360538</internalNodes>
          <leafValues>
            -3.6509147286415100e-01 2.7406561374664307e-01</leafValues></_>
        <_>
          <internalNodes>
            0 -1 172 1947118802 966934979 353818992 1078689878
            -1014531377 682164293 -662564972 -1045223690</internalNodes>
          <leafValues>
            -3.6049243807792664e-01 2.6776674389839172e-01</leafValues></_>
        <_>
          <internalNodes>
            0 -1 165 1658501020 -1047048189 1627490506 -1285385969
            1541657011 1350729870 1913389433 -400196650</internalNodes>
          <leafValues>
            -3.2343325018882751e-01 3.0406230688095093e-01</leafValues></_></weakClassifiers></_>
    <!-- stage 19 -->
    <_>
      <maxWeakCount>13</maxWeakCount>
      <stageThreshold>-1.3166157007217407e+00</stageThreshold>
      <weakClassifiers>
        <_>
          <internalNodes>
            0 -1 91 -681574945 -809333842 1082248806 -1783277389
            -528236311 -2096443295 -242630213 -604533558</internalNodes>
          <leafValues>
            -6.7509025335311890e-01 -1.6725978255271912e-01</leafValues></_>
        <_>
          <internalNodes>
            0 -1 19 615916040 1912779423 1620168909 391414350 271001972
            129146912 -778936980 85092944</internalNodes>
          <leafValues>
            -6.2278491258621216e-01 4.2635306715965271e-02</leafValues></_>
        <_>
          <internalNodes>
            0 -1 39 -168312654 2078462354 -532004863 -328776775
            911124703 834902638 -114713790 1260904392</internalNodes>
          <leafValues>
            -2.8587216138839722e-01 2.6172640919685364e-01</leafValues></_>
        <_>
          <internalNodes>
            0 -1 113 -1070560752 625512451 -535490454 -2046174537
            -787138487 -1340796911 2022449152 877214946</internalNodes>
          <leafValues>
            -4.1733092069625854e-01 2.1951593458652496e-01</leafValues></_>
        <_>
          <internalNodes>
            0 -1 155 -1416055331 1487227900 -1095856610 -180392714
            -151144805 -1779638277 1991679887 -617873461</internalNodes>
          <leafValues>
            -2.0718502998352051e-01 4.1913592815399170e-01</leafValues></_>
        <_>
          <internalNodes>
            0 -1 153 -1068349392 -552823976 427938982 -963132797
            713853457 -1585407200 -1643476194 549282754</internalNodes>
          <leafValues>
            -4.6469098329544067e-01 1.9784945249557495e-01</leafValues></_>
        <_>
          <internalNodes>
            0 -1 100 331131964 465506506 -1248740882 455598643
            -924731963 1644422144 1262723372 1743037102</internalNodes>
          <leafValues>
            -3.9292711019515991e-01 2.2704596817493439e-01</leafValues></_>
        <_>
          <internalNodes>
            0 -1 193 596526062 1032712449 1359012182 513725765
            -1425440688 830539784 1674182980 -1256199086</internalNodes>
          <leafValues>
            -3.6933037638664246e-01 2.3245820403099060e-01</leafValues></_>
        <_>
          <internalNodes>
            0 -1 209 55513476 -1983115052 1906426333 668836642 151546371
            2022359296 1074956685 371991004</internalNodes>
          <leafValues>
            -5.4185086488723755e-01 1.5770013630390167e-01</leafValues></_>
        <_>
          <internalNodes>
            0 -1 67 -537057266 114754688 1086456832 -1838579511
            -762773338 698548384 168430772 1415775745</internalNodes>
          <leafValues>
            -5.4820543527603149e-01 1.5119926631450653e-01</leafValues></_>
        <_>
          <internalNodes>
            0 -1 142 -2119029876 2118595986 84008250 100797312
            -1064775000 1170310273 277080161 160560857</internalNodes>
          <leafValues>
            -4.4265434145927429e-01 2.0247927308082581e-01</leafValues></_>
        <_>
          <internalNodes>
            0 -1 103 1481115896 -573009492 1586415655 700178642
            -909290804 1303431353 -896843300 -417089310</internalNodes>
          <leafValues>
            -2.9243877530097961e-01 3.2183137536048889e-01</leafValues></_>
        <_>
          <internalNodes>
            0 -1 68 125865734 1014584136 201572507 1595869596
            -2100360276 -1836351028 -134217490 388003221</internalNodes>
          <leafValues>
            -4.4210720062255859e-01 2.0957772433757782e-01</leafValues></_></weakClassifiers></_></stages>
  <features>
    <_>
      <rect>
        0 0 1 1</rect></_>
    <_>
      <rect>
        0 0 1 2</rect></_>
    <_>
      <rect>
        0 0 2 1</rect></_>
    <_>
      <rect>
        0 0 2 5</rect></_>
    <_>
      <rect>
        0 0 4 7</rect></_>
    <_>
      <rect>
        0 0 5 4</rect></_>
    <_>
      <rect>
        0 0 6 3</rect></_>
    <_>
      <rect>
        0 0 8 7</rect></_>
    <_>
      <rect>
        0 1 1 1</rect></_>
    <_>
      <rect>
        0 1 3 3</rect></_>
    <_>
      <rect>
        0 1 3 5</rect></_>
    <_>
      <rect>
        0 1 8 5</rect></_>
    <_>
      <rect>
        0 3 2 6</rect></_>
    <_>
      <rect>
        0 3 4 2</rect></_>
    <_>
      <rect>
        0 3 8 2</rect></_>
    <_>
      <rect>
        0 4 1 2</rect></_>
    <_>
      <rect>
        0 4 1 3</rect></_>
    <_>
      <rect>
        0 5 3 2</rect></_>
    <_>
      <rect>
        0 5 8 4</rect></_>
    <_>
      <rect>
        0 6 2 4</rect></_>
    <_>
      <rect>
        0 6 3 6</rect></_>
    <_>
      <rect>
        0 8 5 4</rect></_>
    <_>
      <rect>
        0 9 8 5</rect></_>
    <_>
      <rect>
        0 12 2 2</rect></_>
    <_>
      <rect>
        0 14 1 1</rect></_>
    <_>
      <rect>
        0 15 1 2</rect></_>
    <_>
      <rect>
        0 15 8 3</rect></_>
    <_>
      <rect>
        0 17 1 1</rect></_>
    <_>
      <rect>
        0 18 1 2</rect></_>
    <_>
      <rect>
        0 18 2 2</rect></_>
    <_>
      <rect>
        0 18 6 2</rect></_>
    <_>
      <rect>
        0 21 1 1</rect></_>
    <_>
      <rect>
        0 21 2 1</rect></_>
    <_>
      <rect>
        1 0 3 3</rect></_>
    <_>
      <rect>
        1 0 3 4</rect></_>
    <_>
      <rect>
        1 1 2 4</rect></_>
    <_>
      <rect>
        1 2 1 1</rect></_>
    <_>
      <rect>
        1 3 2 5</rect></_>
    <_>
      <rect>
        1 5 2 4</rect></_>
    <_>
      <rect>
        1 6 3 5</rect></_>
    <_>
      <rect>
        1 6 4 2</rect></_>
    <_>
      <rect>
        1 9 2 3</rect></_>
    <_>
      <rect>
        1 12 2 4</rect></_>
    <_>
      <rect>
        1 14 7 3</rect></_>
    <_>
      <rect>
        1 16 7 2</rect></_>
    <_>
      <rect>
        1 17 2 1</rect></_>
    <_>
      <rect>
        1 17 2 2</rect></_>
    <_>
      <rect>
        1 18 6 2</rect></_>
    <_>
      <rect>
        2 0 6 1</rect></_>
    <_>
      <rect>
        2 2 3 2</rect></_>
    <_>
      <rect>
        2 4 1 3</rect></_>
    <_>
      <rect>
        2 9 2 5</rect></_>
    <_>
      <rect>
        2 9 3 4</rect></_>
    <_>
      <rect>
        2 10 1 1</rect></_>
    <_>
      <rect>
        2 17 2 2</rect></_>
    <_>
      <rect>
        2 21 2 1</rect></_>
    <_>
      <rect>
        3 0 1 1</rect></_>
    <_>
      <rect>
        3 0 3 2</rect></_>
    <_>
      <rect>
        3 0 6 3</rect></_>
    <_>
      <rect>
        3 5 7 6</rect></_>
    <_>
      <rect>
        3 6 3 3</rect></_>
    <_>
      <rect>
        3 6 4 5</rect></_>
    <_>
      <rect>
        3 8 3 3</rect></_>
    <_>
      <rect>
        3 9 1 2</rect></_>
    <_>
      <rect>
        3 12 1 1</rect></_>
    <_>
      <rect>
        3 15 3 3</rect></_>
    <_>
      <rect>
        3 17 1 1</rect></_>
    <_>
      <rect>
        3 21 6 1</rect></_>
    <_>
      <rect>
        4 0 1 1</rect></_>
    <_>
      <rect>
        4 1 1 1</rect></_>
    <_>
      <rect>
        4 1 2 1</rect></_>
    <_>
      <rect>
        4 12 2 3</rect></_>
    <_>
      <rect>
        4 14 1 1</rect></_>
    <_>
      <rect>
        4 16 1 2</rect></_>
    <_>
      <rect>
        5 0 6 3</rect></_>
    <_>
      <rect>
        5 2 5 2</rect></_>
    <_>
      <rect>
        5 11 2 3</rect></_>
    <_>
      <rect>
        6 0 2 1</rect></_>
    <_>
      <rect>
        6 0 3 3</rect></_>
    <_>
      <rect>
        6 0 4 6</rect></_>
    <_>
      <rect>
        6 0 6 4</rect></_>
    <_>
      <rect>
        6 1 4 5</rect></_>
    <_>
      <rect>
        6 3 4 2</rect></_>
    <_>
      <rect>
        6 3 4 5</rect></_>
    <_>
      <rect>
        6 4 4 3</rect></_>
    <_>
      <rect>
        6 6 2 2</rect></_>
    <_>
      <rect>
        6 11 1 1</rect></_>
    <_>
      <rect>
        6 13 1 1</rect></_>
    <_>
      <rect>
        6 20 4 1</rect></_>
    <_>
      <rect>
        6 21 3 1</rect></_>
    <_>
      <rect>
        7 0 1 1</rect></_>
    <_>
      <rect>
        7 1 3 5</rect></_>
    <_>
      <rect>
        7 2 3 1</rect></_>
    <_>
      <rect>
        7 9 1 2</rect></_>
    <_>
      <rect>
        7 9 3 3</rect></_>
    <_>
      <rect>
        8 0 3 2</rect></_>
    <_>
      <rect>
        8 0 4 2</rect></_>
    <_>
      <rect>
        8 2 1 1</rect></_>
    <_>
      <rect>
        8 2 2 2</rect></_>
    <_>
      <rect>
        8 4 2 2</rect></_>
    <_>
      <rect>
        8 7 3 2</rect></_>
    <_>
      <rect>
        8 9 1 3</rect></_>
    <_>
      <rect>
        8 9 3 2</rect></_>
    <_>
      <rect>
        8 10 1 1</rect></_>
    <_>
      <rect>
        8 10 3 1</rect></_>
    <_>
      <rect>
        8 12 1 1</rect></_>
    <_>
      <rect>
        8 14 1 1</rect></_>
    <_>
      <rect>
        8 17 1 1</rect></_>
    <_>
      <rect>
        8 17 3 2</rect></_>
    <_>
      <rect>
        8 19 3 1</rect></_>
    <_>
      <rect>
        9 0 1 1</rect></_>
    <_>
      <rect>
        9 0 5 2</rect></_>
    <_>
      <rect>
        9 0 5 8</rect></_>
    <_>
      <rect>
        9 1 2 1</rect></_>
    <_>
      <rect>
        9 1 5 5</rect></_>
    <_>
      <rect>
        9 5 2 1</rect></_>
    <_>
      <rect>
        9 5 2 2</rect></_>
    <_>
      <rect>
        9 7 4 5</rect></_>
    <_>
      <rect>
        9 8 1 1</rect></_>
    <_>
      <rect>
        9 9 5 5</rect></_>
    <_>
      <rect>
        9 10 1 1</rect></_>
    <_>
      <rect>
        9 13 2 2</rect></_>
    <_>
      <rect>
        9 16 1 1</rect></_>
    <_>
      <rect>
        9 18 5 2</rect></_>
    <_>
      <rect>
        9 21 1 1</rect></_>
    <_>
      <rect>
        10 1 2 2</rect></_>
    <_>
      <rect>
        10 6 1 1</rect></_>
    <_>
      <rect>
        10 7 1 1</rect></_>
    <_>
      <rect>
        10 7 2 2</rect></_>
    <_>
      <rect>
        10 7 3 4</rect></_>
    <_>
      <rect>
        10 9 1 3</rect></_>
    <_>
      <rect>
        10 10 1 3</rect></_>
    <_>
      <rect>
        10 15 3 1</rect></_>
    <_>
      <rect>
        10 18 3 2</rect></_>
    <_>
      <rect>
        10 21 3 1</rect></_>
    <_>
      <rect>
        11 0 2 1</rect></_>
    <_>
      <rect>
        11 2 2 1</rect></_>
    <_>
      <rect>
        11 4 1 1</rect></_>
    <_>
      <rect>
        11 6 1 4</rect></_>
    <_>
      <rect>
        11 8 1 1</rect></_>
    <_>
      <rect>
        11 10 1 1</rect></_>
    <_>
      <rect>
        11 12 1 1</rect></_>
    <_>
      <rect>
        11 13 3 3</rect></_>
    <_>
      <rect>
        11 16 1 1</rect></_>
    <_>
      <rect>
        12 0 4 2</rect></_>
    <_>
      <rect>
        12 1 4 2</rect></_>
    <_>
      <rect>
        12 2 3 3</rect></_>
    <_>
      <rect>
        12 5 2 2</rect></_>
    <_>
      <rect>
        12 5 3 5</rect></_>
    <_>
      <rect>
        12 12 1 1</rect></_>
    <_>
      <rect>
        12 14 1 1</rect></_>
    <_>
      <rect>
        12 20 2 1</rect></_>
    <_>
      <rect>
        13 0 3 3</rect></_>
    <_>
      <rect>
        13 1 3 4</rect></_>
    <_>
      <rect>
        13 4 3 4</rect></_>
    <_>
      <rect>
        13 9 1 1</rect></_>
    <_>
      <rect>
        13 11 1 1</rect></_>
    <_>
      <rect>
        13 11 1 2</rect></_>
    <_>
      <rect>
        13 12 2 2</rect></_>
    <_>
      <rect>
        13 14 1 1</rect></_>
    <_>
      <rect>
        13 21 2 1</rect></_>
    <_>
      <rect>
        14 0 3 4</rect></_>
    <_>
      <rect>
        14 1 3 2</rect></_>
    <_>
      <rect>
        14 8 1 1</rect></_>
    <_>
      <rect>
        14 10 1 1</rect></_>
    <_>
      <rect>
        14 10 2 3</rect></_>
    <_>
      <rect>
        14 10 3 4</rect></_>
    <_>
      <rect>
        14 11 1 2</rect></_>
    <_>
      <rect>
        14 12 2 4</rect></_>
    <_>
      <rect>
        14 13 1 1</rect></_>
    <_>
      <rect>
        14 13 2 3</rect></_>
    <_>
      <rect>
        14 15 3 3</rect></_>
    <_>
      <rect>
        14 16 2 2</rect></_>
    <_>
      <rect>
        14 17 1 1</rect></_>
    <_>
      <rect>
        14 17 3 1</rect></_>
    <_>
      <rect>
        14 18 1 1</rect></_>
    <_>
      <rect>
        14 19 2 1</rect></_>
    <_>
      <rect>
        14 20 2 1</rect></_>
    <_>
      <rect>
        15 0 3 1</rect></_>
    <_>
      <rect>
        15 1 3 5</rect></_>
    <_>
      <rect>
        15 2 2 2</rect></_>
    <_>
      <rect>
        15 3 3 3</rect></_>
    <_>
      <rect>
        15 4 3 4</rect></_>
    <_>
      <rect>
        15 6 3 5</rect></_>
    <_>
      <rect>
        15 8 1 2</rect></_>
    <_>
      <rect>
        15 11 1 1</rect></_>
    <_>
      <rect>
        15 12 1 1</rect></_>
    <_>
      <rect>
        15 13 1 2</rect></_>
    <_>
      <rect>
        15 21 3 1</rect></_>
    <_>
      <rect>
        16 6 1 3</rect></_>
    <_>
      <rect>
        16 20 1 1</rect></_>
    <_>
      <rect>
        17 0 2 1</rect></_>
    <_>
      <rect>
        17 1 2 7</rect></_>
    <_>
      <rect>
        17 2 2 2</rect></_>
    <_>
      <rect>
        17 3 1 4</rect></_>
    <_>
      <rect>
        17 7 1 4</rect></_>
    <_>
      <rect>
        17 8 2 5</rect></_>
    <_>
      <rect>
        17 11 2 3</rect></_>
    <_>
      <rect>
        17 12 2 4</rect></_>
    <_>
      <rect>
        17 13 1 1</rect></_>
    <_>
      <rect>
        17 18 2 2</rect></_>
    <_>
      <rect>
        18 0 1 1</rect></_>
    <_>
      <rect>
        18 0 2 1</rect></_>
    <_>
      <rect>
        18 0 2 2</rect></_>
    <_>
      <rect>
        18 0 2 5</rect></_>
    <_>
      <rect>
        18 3 2 3</rect></_>
    <_>
      <rect>
        18 4 1 1</rect></_>
    <_>
      <rect>
        18 4 2 5</rect></_>
    <_>
      <rect>
        18 5 2 3</rect></_>
    <_>
      <rect>
        18 9 2 5</rect></_>
    <_>
      <rect>
        18 12 2 3</rect></_>
    <_>
      <rect>
        18 14 2 2</rect></_>
    <_>
      <rect>
        18 15 2 3</rect></_>
    <_>
      <rect>
        18 20 2 1</rect></_>
    <_>
      <rect>
        19 0 1 1</rect></_>
    <_>
      <rect>
        19 14 1 1</rect></_>
    <_>
      <rect>
        19 15 1 1</rect></_>
    <_>
      <rect>
        20 18 1 1</rect></_>
    <_>
      <rect>
        20 21 1 1</rect></_>
    <_>
      <rect>
        21 0 1 1</rect></_>
    <_>
      <rect>
        21 0 1 2</rect></_>
    <_>
      <rect>
        21 1 1 1</rect></_>
    <_>
      <rect>
        21 1 1 3</rect></_>
    <_>
      <rect>
        21 3 1 1</rect></_>
    <_>
      <rect>
        21 3 1 7</rect></_>
    <_>
      <rect>
        21 5 1 3</rect></_>
    <_>
      <rect>
        21 10 1 2</rect></_>
    <_>
      <rect>
        21 11 1 1</rect></_>
    <_>
      <rect>
        21 11 1 3</rect></_>
    <_>
      <rect>
        21 12 1 2</rect></_></features></cascade>
</opencv_storage>
