<?xml version="1.0"?>
<opencv_storage>
<cascade>
  <stageType>BOOST</stageType>
  <featureType>LBP</featureType>
  <height>24</height>
  <width>24</width>
  <stageParams>
    <boostType>GAB</boostType>
    <minHitRate>9.9500000476837158e-01</minHitRate>
    <maxFalseAlarm>5.0000000000000000e-01</maxFalseAlarm>
    <weightTrimRate>9.4999998807907104e-01</weightTrimRate>
    <maxDepth>1</maxDepth>
    <maxWeakCount>100</maxWeakCount></stageParams>
  <featureParams>
    <maxCatCount>256</maxCatCount>
    <featSize>1</featSize></featureParams>
  <stageNum>20</stageNum>
  <stages>
    <!-- stage 0 -->
    <_>
      <maxWeakCount>6</maxWeakCount>
      <stageThreshold>-1.3204324245452881e+00</stageThreshold>
      <weakClassifiers>
        <_>
          <internalNodes>
            0 -1 14 -136318033 12833326 1627619904 -932198717 1879568967
            1354834027 -787488768 -150995073</internalNodes>
          <leafValues>
            -7.2124683856964111e-01 3.5694050788879395e-01</leafValues></_>
        <_>
          <internalNodes>
            0 -1 182 -671094081 -1966807381 -1727593562 214337434
            961225297 1611548757 -678825150 -237524017</internalNodes>
          <leafValues>
            -4.8888120055198669e-01 5.0314420461654663e-01</leafValues></_>
        <_>
          <internalNodes>
            0 -1 65 -171710034 -525872915 -805117822 -435846871
            -217519157 1933672590 -1465663567 29469130</internalNodes>
          <leafValues>
            -5.1977604627609253e-01 3.5649102926254272e-01</leafValues></_>
        <_>
          <internalNodes>
            0 -1 139 -531774842 1660534527 -825639290 -521752582
            -444719576 350140284 1450555392 -428359837</internalNodes>
          <leafValues>
            -3.7770077586174011e-01 5.0140804052352905e-01</leafValues></_>
        <_>
          <internalNodes>
            0 -1 24 -331890082 1990101063 90284718 618840524 -162532540
            1342937973 1604837892 -406851149</internalNodes>
          <leafValues>
            -4.3542736768722534e-01 4.3997529149055481e-01</leafValues></_>
        <_>
          <internalNodes>
            0 -1 21 2001182798 2018312710 806691394 1072501666
            -249056898 26038569 51065822 1469026972</internalNodes>
          <leafValues>
            -5.2906996011734009e-01 3.4855994582176208e-01</leafValues></_></weakClassifiers></_>
    <!-- stage 1 -->
    <_>
      <maxWeakCount>9</maxWeakCount>
      <stageThreshold>-1.4890162944793701e+00</stageThreshold>
      <weakClassifiers>
        <_>
          <internalNodes>
            0 -1 43 -21 -145755505 -837623742 1223153823 -1049896125
            545475210 -112750588 -201331825</internalNodes>
          <leafValues>
            -6.5963149070739746e-01 4.0625000000000000e-01</leafValues></_>
        <_>
          <internalNodes>
            0 -1 178 -168302098 71673439 -1073233534 684635887
            2144347731 52069088 1087012128 1625809582</internalNodes>
          <leafValues>
            -5.4590004682540894e-01 2.7843800187110901e-01</leafValues></_>
        <_>
          <internalNodes>
            0 -1 51 393552864 322704347 8455654 -1074998786 2072657901
            1362104298 2133540346 867107817</internalNodes>
          <leafValues>
            -5.5752211809158325e-01 2.7478194236755371e-01</leafValues></_>
        <_>
          <internalNodes>
            0 -1 93 -563099862 4211238 26345614 713465986 -1285827088
            562184576 1338106400 1927780642</internalNodes>
          <leafValues>
            -5.0733077526092529e-01 3.2044306397438049e-01</leafValues></_>
        <_>
          <internalNodes>
            0 -1 4 -933041938 1290195915 542312170 1701420006 1200535982
            -429012577 -1026889939 392504148</internalNodes>
          <leafValues>
            -5.5172467231750488e-01 2.8054842352867126e-01</leafValues></_>
        <_>
          <internalNodes>
            0 -1 157 -143414614 -2143293570 796180004 1710661231
            1182071889 888635389 -1259045264 -252203090</internalNodes>
          <leafValues>
            -3.4859448671340942e-01 4.3036437034606934e-01</leafValues></_>
        <_>
          <internalNodes>
            0 -1 84 -28373980 -1110209770 -1856812473 -1210060411
            -808753929 698594639 -1358873014 877406760</internalNodes>
          <leafValues>
            -5.5149060487747192e-01 2.9366746544837952e-01</leafValues></_>
        <_>
          <internalNodes>
            0 -1 218 -95204319 1253032105 -1073594024 -1194860209
            1347318321 1627571011 949633540 -487326171</internalNodes>
          <leafValues>
            -4.3271967768669128e-01 3.3811748027801514e-01</leafValues></_>
        <_>
          <internalNodes>
            0 -1 79 -1711687350 1611953103 831270090 558957420
            2034865154 1397940631 -1390952576 1967461252</internalNodes>
          <leafValues>
            -6.5177434682846069e-01 2.2236156463623047e-01</leafValues></_></weakClassifiers></_>
    <!-- stage 2 -->
    <_>
      <maxWeakCount>10</maxWeakCount>
      <stageThreshold>-1.2879889011383057e+00</stageThreshold>
      <weakClassifiers>
        <_>
          <internalNodes>
            0 -1 180 -137364481 -1067461749 -1022918632 -2070755770
            -665362457 553850895 -245636329 -268439569</internalNodes>
          <leafValues>
            -6.7876785993576050e-01 1.1688311398029327e-01</leafValues></_>
        <_>
          <internalNodes>
            0 -1 58 -462692826 39054526 -694713792 583050319 1664311367
            551116838 646844672 -458230801</internalNodes>
          <leafValues>
            -5.0841587781906128e-01 2.4999031424522400e-01</leafValues></_>
        <_>
          <internalNodes>
            0 -1 220 -403216857 1124073342 -1073758466 -1363148937
            -142606540 217350135 1694465381 -187183113</internalNodes>
          <leafValues>
            -3.4551864862442017e-01 3.9020073413848877e-01</leafValues></_>
        <_>
          <internalNodes>
            0 -1 28 989597615 986315483 89000894 333101518 -2014934052
            623233084 1457183723 1940890535</internalNodes>
          <leafValues>
            -4.4347044825553894e-01 3.2705536484718323e-01</leafValues></_>
        <_>
          <internalNodes>
            0 -1 108 -3408082 339144419 784117290 -1426653298
            -1476477963 611415662 -1409995430 -1069549889</internalNodes>
          <leafValues>
            -2.7450996637344360e-01 4.8714312911033630e-01</leafValues></_>
        <_>
          <internalNodes>
            0 -1 3 106098606 1052519771 -1813970034 -1213773760
            -118199413 -863217278 -702571687 1097150291</internalNodes>
          <leafValues>
            -5.1746833324432373e-01 2.6542305946350098e-01</leafValues></_>
        <_>
          <internalNodes>
            0 -1 103 -593834776 1389924575 627542084 -1243626845
            1895248824 1880301811 -2028378674 -486678070</internalNodes>
          <leafValues>
            -3.6883842945098877e-01 3.6976698040962219e-01</leafValues></_>
        <_>
          <internalNodes>
            0 -1 2 -755517804 840880270 -1064713742 -1413289594
            -250148481 -246660926 1632357330 100622130</internalNodes>
          <leafValues>
            -4.4701266288757324e-01 3.0066326260566711e-01</leafValues></_>
        <_>
          <internalNodes>
            0 -1 82 -423629214 987363019 -804581636 1834264234
            1980189631 1644257603 -508286710 -699307337</internalNodes>
          <leafValues>
            -3.9255636930465698e-01 3.5050499439239502e-01</leafValues></_>
        <_>
          <internalNodes>
            0 -1 172 -974129937 460781311 -4572 620101606 2004608883
            897063932 1471469349 -694700769</internalNodes>
          <leafValues>
            -2.8722265362739563e-01 4.9787706136703491e-01</leafValues></_></weakClassifiers></_>
    <!-- stage 3 -->
    <_>
      <maxWeakCount>10</maxWeakCount>
      <stageThreshold>-1.6378061771392822e+00</stageThreshold>
      <weakClassifiers>
        <_>
          <internalNodes>
            0 -1 196 -201337961 -993286661 1209024946 640144152
            -1024819389 1267254403 1154986659 -523767821</internalNodes>
          <leafValues>
            -6.6841709613800049e-01 2.5270758196711540e-02</leafValues></_>
        <_>
          <internalNodes>
            0 -1 200 -33596061 -138193457 -946120754 -33554497 -29735674
            -202796901 258703173 -654312625</internalNodes>
          <leafValues>
            -4.0979158878326416e-01 3.1048047542572021e-01</leafValues></_>
        <_>
          <internalNodes>
            0 -1 15 -1360547909 1760485051 754954158 1684692970
            880252695 318210047 -35310 -144769433</internalNodes>
          <leafValues>
            -3.3132624626159668e-01 3.4376779198646545e-01</leafValues></_>
        <_>
          <internalNodes>
            0 -1 42 -1080576242 503419611 -1056783934 -1277173099
            -470491100 1610982028 1015246388 -545265757</internalNodes>
          <leafValues>
            -3.5047540068626404e-01 3.4695324301719666e-01</leafValues></_>
        <_>
          <internalNodes>
            0 -1 97 665792260 501197725 -896003044 766498651 1060846288
            695214739 -2017499912 481980326</internalNodes>
          <leafValues>
            -5.3894388675689697e-01 2.2180053591728210e-01</leafValues></_>
        <_>
          <internalNodes>
            0 -1 92 2012473230 52084884 890536874 -2058428217 -473214754
            1894339239 -2129555486 1434569644</internalNodes>
          <leafValues>
            -4.5577892661094666e-01 2.9580041766166687e-01</leafValues></_>
        <_>
          <internalNodes>
            0 -1 222 1559168875 1725002673 -1039571840 -1494756258
            975401794 1390609050 929985857 1614277614</internalNodes>
          <leafValues>
            -4.7161611914634705e-01 2.4013501405715942e-01</leafValues></_>
        <_>
          <internalNodes>
            0 -1 147 1669786656 -653295533 -2147348532 -1680674398
            775512199 -146746110 -1974926024 1077405582</internalNodes>
          <leafValues>
            -4.9484765529632568e-01 2.4833928048610687e-01</leafValues></_>
        <_>
          <internalNodes>
            0 -1 11 -1264867410 75711320 -2028847082 248967294
            1377522051 -174030173 -1811849866 1953951750</internalNodes>
          <leafValues>
            -5.0647670030593872e-01 2.3831853270530701e-01</leafValues></_>
        <_>
          <internalNodes>
            0 -1 121 -313775256 -553402021 1075369768 -135522093
            1809166549 -909569643 -1297957958 -313473050</internalNodes>
          <leafValues>
            -3.5447955131530762e-01 3.3696722984313965e-01</leafValues></_></weakClassifiers></_>
    <!-- stage 4 -->
    <_>
      <maxWeakCount>8</maxWeakCount>
      <stageThreshold>-1.3239004611968994e+00</stageThreshold>
      <weakClassifiers>
        <_>
          <internalNodes>
            0 -1 25 -8769 -280265381 -290109788 -555877601 -68421801
            1127953795 -637011344 -192947201</internalNodes>
          <leafValues>
            -7.3272728919982910e-01 -1.1488049477338791e-01</leafValues></_>
        <_>
          <internalNodes>
            0 -1 219 -341628153 -1499892923 1226385344 -426836673
            2136880951 665666143 2102229796 1885601653</internalNodes>
          <leafValues>
            -6.0346090793609619e-01 1.7654576897621155e-01</leafValues></_>
        <_>
          <internalNodes>
            0 -1 225 938307527 -1962954083 -518581084 -455439026
            865950565 -156560957 -81502347 -592117923</internalNodes>
          <leafValues>
            -4.6991562843322754e-01 2.9571610689163208e-01</leafValues></_>
        <_>
          <internalNodes>
            0 -1 52 540482783 247165178 1493377438 614519754 -892831523
            2060355853 680794552 1782244980</internalNodes>
          <leafValues>
            -4.9004936218261719e-01 3.1044277548789978e-01</leafValues></_>
        <_>
          <internalNodes>
            0 -1 30 39784191 -1359018209 289457290 -1103694907
            -1966443020 1938525707 -87144840 -563414155</internalNodes>
          <leafValues>
            -4.0646263957023621e-01 3.3815389871597290e-01</leafValues></_>
        <_>
          <internalNodes>
            0 -1 150 -1610628125 1672581007 -2133613148 -1259161058
            1451899735 26464031 -150521548 1895679942</internalNodes>
          <leafValues>
            -5.0073856115341187e-01 2.8810444474220276e-01</leafValues></_>
        <_>
          <internalNodes>
            0 -1 0 716074991 -1967760076 -1759787569 -1395591155
            1569923811 -612197914 1005797880 1216740209</internalNodes>
          <leafValues>
            -4.7745794057846069e-01 2.8539606928825378e-01</leafValues></_>
        <_>
          <internalNodes>
            0 -1 151 -1428214353 137258462 -1421463388 81764799
            1716341360 1560529059 1807905158 1148546883</internalNodes>
          <leafValues>
            -5.8213806152343750e-01 2.2881682217121124e-01</leafValues></_></weakClassifiers></_>
    <!-- stage 5 -->
    <_>
      <maxWeakCount>11</maxWeakCount>
      <stageThreshold>-1.2177066802978516e+00</stageThreshold>
      <weakClassifiers>
        <_>
          <internalNodes>
            0 -1 119 -44050827 -214198209 -780021921 -2662955
            -1174830659 -132470648 -476266788 -1459618881</internalNodes>
          <leafValues>
            -6.5529620647430420e-01 8.9887641370296478e-02</leafValues></_>
        <_>
          <internalNodes>
            0 -1 32 73542388 2107044300 622110175 969417860 1195460509
            1838678704 2122988015 1283270807</internalNodes>
          <leafValues>
            -5.3070455789566040e-01 1.7370171844959259e-01</leafValues></_>
        <_>
          <internalNodes>
            0 -1 5 226026824 -39854116 67541253 1136957855 -619766019
            -1047986144 -359024088 835988208</internalNodes>
          <leafValues>
            -5.4546034336090088e-01 1.8768379092216492e-01</leafValues></_>
        <_>
          <internalNodes>
            0 -1 184 -1374167424 1996470758 2004792443 -34222348
            1869919634 1900453847 -188746358 -202920589</internalNodes>
          <leafValues>
            -2.3353776335716248e-01 4.3748000264167786e-01</leafValues></_>
        <_>
          <internalNodes>
            0 -1 8 1946995854 1044034326 1009828167 755155146 1687296508
            965181441 939748662 1692897701</internalNodes>
          <leafValues>
            -4.7460910677909851e-01 2.3672401905059814e-01</leafValues></_>
        <_>
          <internalNodes>
            0 -1 90 -346032735 277907078 -805154680 -308680568
            1370026671 -1062655871 -683607159 81244458</internalNodes>
          <leafValues>
            -3.5088601708412170e-01 2.9479742050170898e-01</leafValues></_>
        <_>
          <internalNodes>
            0 -1 191 -441585774 -532252929 -272688 2095886012 -478356778
            545128191 -153192705 -122159138</internalNodes>
          <leafValues>
            -2.7632424235343933e-01 4.0183070302009583e-01</leafValues></_>
        <_>
          <internalNodes>
            0 -1 140 -939397180 -670003105 1409515982 1674404097
            1250119844 126347930 -1549997206 1978723355</internalNodes>
          <leafValues>
            -4.0618547797203064e-01 2.7650752663612366e-01</leafValues></_>
        <_>
          <internalNodes>
            0 -1 141 -124347768 -1788285954 -337728850 -570519572
            1878898566 81999612 -671304280 -1747490578</internalNodes>
          <leafValues>
            -3.3667963743209839e-01 3.4593361616134644e-01</leafValues></_>
        <_>
          <internalNodes>
            0 -1 88 1971093504 -632093352 -2097061679 426426374
            -2088605466 -1648852831 1248764077 551726650</internalNodes>
          <leafValues>
            -5.2629226446151733e-01 2.1774213016033173e-01</leafValues></_>
        <_>
          <internalNodes>
            0 -1 126 -1538594258 849079122 1924642541 1945970303
            -621099022 -1796260490 -1980025284 -1007741014</internalNodes>
          <leafValues>
            -3.0846017599105835e-01 3.9563184976577759e-01</leafValues></_></weakClassifiers></_>
    <!-- stage 6 -->
    <_>
      <maxWeakCount>12</maxWeakCount>
      <stageThreshold>-1.3927109241485596e+00</stageThreshold>
      <weakClassifiers>
        <_>
          <internalNodes>
            0 -1 185 -771753473 494908575 -775704485 -1080564902
            -1819360837 968179859 -351539201 -35654737</internalNodes>
          <leafValues>
            -6.0779136419296265e-01 1.7094017565250397e-01</leafValues></_>
        <_>
          <internalNodes>
            0 -1 128 -198907384 310385842 1091223692 -1310481860
            -622941214 1514143896 -274531925 -1228994929</internalNodes>
          <leafValues>
            -3.5844475030899048e-01 2.7091324329376221e-01</leafValues></_>
        <_>
          <internalNodes>
            0 -1 130 379336276 833927069 43618124 -1116305707
            -1305141322 -1034214856 -255841384 -1107748440</internalNodes>
          <leafValues>
            -3.9085826277732849e-01 2.4313652515411377e-01</leafValues></_>
        <_>
          <internalNodes>
            0 -1 165 1574415342 1951109234 1267425594 -1504610929
            2073086310 -1249172961 -649099896 1620571042</internalNodes>
          <leafValues>
            -3.8577917218208313e-01 2.6660516858100891e-01</leafValues></_>
        <_>
          <internalNodes>
            0 -1 115 -868449374 -1258659138 250520924 1358786215
            -151253516 1416134524 -312294074 -211341341</internalNodes>
          <leafValues>
            -3.0977180600166321e-01 3.3498471975326538e-01</leafValues></_>
        <_>
          <internalNodes>
            0 -1 100 1087416764 1608126943 1352237087 -1782480421
            -232030048 -89650528 1805764857 -410713598</internalNodes>
          <leafValues>
            -3.1580346822738647e-01 3.1109198927879333e-01</leafValues></_>
        <_>
          <internalNodes>
            0 -1 183 -400432606 -1188036620 -1090601160 -743491016
            1737799030 942995070 2129265450 -251723574</internalNodes>
          <leafValues>
            -2.9223126173019409e-01 3.4632340073585510e-01</leafValues></_>
        <_>
          <internalNodes>
            0 -1 124 1282269326 -1598241007 1147666688 -1880126910
            2021713441 1887535632 -905219417 1933911562</internalNodes>
          <leafValues>
            -4.3370068073272705e-01 2.3456130921840668e-01</leafValues></_>
        <_>
          <internalNodes>
            0 -1 201 1149191710 1546654559 -1056205558 2133016914
            2043340864 986040457 1502299712 1655960459</internalNodes>
          <leafValues>
            -4.2779046297073364e-01 2.5253117084503174e-01</leafValues></_>
        <_>
          <internalNodes>
            0 -1 87 2043605008 -599584767 -670825633 -552152720
            -1977896739 1821804687 -670433203 205466190</internalNodes>
          <leafValues>
            -3.8200151920318604e-01 2.7516594529151917e-01</leafValues></_>
        <_>
          <internalNodes>
            0 -1 169 186299024 1913309519 -582975223 -1856837424
            1783864809 827457587 -1452643888 -784881258</internalNodes>
          <leafValues>
            -3.4044265747070313e-01 3.3525866270065308e-01</leafValues></_>
        <_>
          <internalNodes>
            0 -1 125 -75476474 1409480834 1367348402 342037482
            1342472408 1151467721 1015264063 -1861782433</internalNodes>
          <leafValues>
            -3.8502952456474304e-01 2.9179379343986511e-01</leafValues></_></weakClassifiers></_>
    <!-- stage 7 -->
    <_>
      <maxWeakCount>11</maxWeakCount>
      <stageThreshold>-1.1951962709426880e+00</stageThreshold>
      <weakClassifiers>
        <_>
          <internalNodes>
            0 -1 62 2036806655 533529047 1397855163 2138176631
            -631565411 -1155982965 -392450309 -8650769</internalNodes>
          <leafValues>
            -6.1820048093795776e-01 8.0139376223087311e-02</leafValues></_>
        <_>
          <internalNodes>
            0 -1 221 -304119819 -438843702 554934738 -831170834
            -1064602651 676560963 294611688 -445688852</internalNodes>
          <leafValues>
            -3.7348803877830505e-01 2.4025282263755798e-01</leafValues></_>
        <_>
          <internalNodes>
            0 -1 144 715398400 -85573316 -1424772667 -340988 -1283321359
            -774215543 295252828 4223504</internalNodes>
          <leafValues>
            -6.3519608974456787e-01 1.3758730888366699e-01</leafValues></_>
        <_>
          <internalNodes>
            0 -1 44 -459127518 897614013 -983857138 1721157839 858751777
            338163866 1113799428 1446203623</internalNodes>
          <leafValues>
            -4.9308717250823975e-01 1.9970859587192535e-01</leafValues></_>
        <_>
          <internalNodes>
            0 -1 77 34606114 60965773 -476471902 -1970401024 1208726131
            1887648397 2055387821 39087188</internalNodes>
          <leafValues>
            -6.9676202535629272e-01 1.4112721383571625e-01</leafValues></_>
        <_>
          <internalNodes>
            0 -1 50 112137645 735189268 1762840748 -1496438070
            -1307766532 927098899 -1204598019 -272741729</internalNodes>
          <leafValues>
            -3.9455622434616089e-01 2.2662991285324097e-01</leafValues></_>
        <_>
          <internalNodes>
            0 -1 136 1990599285 29233879 961704412 -103445640 54261472
            -115336524 548566973 -1184286280</internalNodes>
          <leafValues>
            -3.1781545281410217e-01 2.9738715291023254e-01</leafValues></_>
        <_>
          <internalNodes>
            0 -1 56 2072322670 1712862147 270606604 428667542 1342554916
            1100126729 197271114 621886664</internalNodes>
          <leafValues>
            -5.1782768964767456e-01 1.8440663814544678e-01</leafValues></_>
        <_>
          <internalNodes>
            0 -1 138 -481831200 1887753286 -738077266 111199455
            1919286749 -745912167 -1016622805 -529554602</internalNodes>
          <leafValues>
            -2.9961451888084412e-01 3.2100087404251099e-01</leafValues></_>
        <_>
          <internalNodes>
            0 -1 216 996058931 495268161 1426940383 1406468478
            -1484714703 -1457904248 -632797163 739627521</internalNodes>
          <leafValues>
            -4.1451099514961243e-01 2.3347382247447968e-01</leafValues></_>
        <_>
          <internalNodes>
            0 -1 149 -740794692 121380935 -2063366012 -1403184484
            1493844212 304336922 1897929625 1156937475</internalNodes>
          <leafValues>
            -4.6848112344741821e-01 2.0834490656852722e-01</leafValues></_></weakClassifiers></_>
    <!-- stage 8 -->
    <_>
      <maxWeakCount>11</maxWeakCount>
      <stageThreshold>-1.1089975833892822e+00</stageThreshold>
      <weakClassifiers>
        <_>
          <internalNodes>
            0 -1 46 -740294721 -545795081 -787353313 -1219004967
            -634433057 2083637955 1533225320 -2098177</internalNodes>
          <leafValues>
            -6.2394368648529053e-01 1.6742769628763199e-02</leafValues></_>
        <_>
          <internalNodes>
            0 -1 224 -45259 1075761307 1629616912 1274970863 -1318076519
            1884022971 -1012542511 -168362376</internalNodes>
          <leafValues>
            -3.7989169359207153e-01 2.4710494279861450e-01</leafValues></_>
        <_>
          <internalNodes>
            0 -1 29 1708506872 1926470366 -1288526984 525842910
            -1937538083 1688844932 816726390 1456258037</internalNodes>
          <leafValues>
            -4.5946887135505676e-01 1.9328862428665161e-01</leafValues></_>
        <_>
          <internalNodes>
            0 -1 13 682864939 -289111094 -1639775873 1052665636
            302359639 1985167490 25105712 2028005168</internalNodes>
          <leafValues>
            -4.8158502578735352e-01 1.8483959138393402e-01</leafValues></_>
        <_>
          <internalNodes>
            0 -1 164 174269504 2122172018 -742165123 -1918219306
            1573212768 200925448 1491657610 349988442</internalNodes>
          <leafValues>
            -5.1679331064224243e-01 2.0336565375328064e-01</leafValues></_>
        <_>
          <internalNodes>
            0 -1 186 528421265 -1111998449 1195532764 712770898
            541262184 681197995 46408069 192929162</internalNodes>
          <leafValues>
            -4.1333395242691040e-01 2.2318488359451294e-01</leafValues></_>
        <_>
          <internalNodes>
            0 -1 215 -140024857 1073684445 -671186949 -1141112906
            394166136 2125987701 2012700648 -1946692400</internalNodes>
          <leafValues>
            -2.6561507582664490e-01 3.5815238952636719e-01</leafValues></_>
        <_>
          <internalNodes>
            0 -1 174 -1981318372 -1092577190 -914197988 -841186738
            -796089737 23791659 1302876494 1308619653</internalNodes>
          <leafValues>
            -3.8620921969413757e-01 2.6804074645042419e-01</leafValues></_>
        <_>
          <internalNodes>
            0 -1 53 -528830940 1280345942 -1325366614 -279644774
            -175066403 -285196082 -1407414059 650971688</internalNodes>
          <leafValues>
            -5.4308605194091797e-01 1.8463994562625885e-01</leafValues></_>
        <_>
          <internalNodes>
            0 -1 167 -684998880 345949257 1476706600 -628457338
            2028456072 181368227 553054778 -1280334300</internalNodes>
          <leafValues>
            -3.3918344974517822e-01 2.9331395030021667e-01</leafValues></_>
        <_>
          <internalNodes>
            0 -1 199 13173069 2058535039 -787948346 -387390634 946249810
            2045112889 1083732276 4198688</internalNodes>
          <leafValues>
            -7.1114820241928101e-01 1.3805979490280151e-01</leafValues></_></weakClassifiers></_>
    <!-- stage 9 -->
    <_>
      <maxWeakCount>13</maxWeakCount>
      <stageThreshold>-1.3531047105789185e+00</stageThreshold>
      <weakClassifiers>
        <_>
          <internalNodes>
            0 -1 64 -41951233 -144733613 -754454021 -6600741 -73663489
            -1616147797 -342169089 -2247749</internalNodes>
          <leafValues>
            -5.6814700365066528e-01 4.0517240762710571e-01</leafValues></_>
        <_>
          <internalNodes>
            0 -1 47 932448932 -1096670914 -2112823054 852012866
            464943952 1559523865 4344668 171064167</internalNodes>
          <leafValues>
            -6.6556930541992188e-01 6.7763574421405792e-02</leafValues></_>
        <_>
          <internalNodes>
            0 -1 116 697837360 613173627 -1312216170 -1177759156
            1540122460 -485819765 1000106653 739512580</internalNodes>
          <leafValues>
            -6.8325877189636230e-01 1.0471385717391968e-01</leafValues></_>
        <_>
          <internalNodes>
            0 -1 204 1336376810 -1421021157 -179584232 -816962606
            2064608221 1904971833 -360199244 2081292284</internalNodes>
          <leafValues>
            -3.4162676334381104e-01 2.4952211976051331e-01</leafValues></_>
        <_>
          <internalNodes>
            0 -1 36 -1499468540 750253447 -519990113 637704090
            -808205985 1927263067 -79963665 217833938</internalNodes>
          <leafValues>
            -3.4355613589286804e-01 2.5468769669532776e-01</leafValues></_>
        <_>
          <internalNodes>
            0 -1 98 1111333646 -3763631 352552411 890114523 -494923024
            2108703401 -259974451 2011116495</internalNodes>
          <leafValues>
            -3.3479225635528564e-01 2.5954952836036682e-01</leafValues></_>
        <_>
          <internalNodes>
            0 -1 101 -1096293210 -687997218 528412520 -826609952
            -1761864201 1464335605 1605894127 -1276684322</internalNodes>
          <leafValues>
            -2.7803698182106018e-01 3.3901384472846985e-01</leafValues></_>
        <_>
          <internalNodes>
            0 -1 133 -2067272574 1037814410 1342111216 196663532
            2012933805 647298791 -8390682 -1308673617</internalNodes>
          <leafValues>
            -2.8823187947273254e-01 3.2184109091758728e-01</leafValues></_>
        <_>
          <internalNodes>
            0 -1 208 -38454500 881033658 268472817 -1216421568
            -264024269 -1685583469 -1438017456 -112215598</internalNodes>
          <leafValues>
            -3.3089700341224670e-01 2.8761923313140869e-01</leafValues></_>
        <_>
          <internalNodes>
            0 -1 202 -471888451 1090518971 2147348414 1232531438
            -1745391830 -688455683 2013032392 -524570718</internalNodes>
          <leafValues>
            -2.9193693399429321e-01 3.3120691776275635e-01</leafValues></_>
        <_>
          <internalNodes>
            0 -1 34 1180589567 -1299750941 -1006349101 1382863096
            1266896028 -264666990 1803635404 1862196220</internalNodes>
          <leafValues>
            -3.5833805799484253e-01 2.6432546973228455e-01</leafValues></_>
        <_>
          <internalNodes>
            0 -1 114 -959421694 -1304968088 -1403322004 -1386097782
            -972032752 649607738 1988713455 1685759524</internalNodes>
          <leafValues>
            -4.7931876778602600e-01 2.0310530066490173e-01</leafValues></_>
        <_>
          <internalNodes>
            0 -1 70 654517536 376226078 1112893766 -1630729528
            -904296243 1177199364 1194258704 -354223370</internalNodes>
          <leafValues>
            -4.0127861499786377e-01 2.3451609909534454e-01</leafValues></_></weakClassifiers></_>
    <!-- stage 10 -->
    <_>
      <maxWeakCount>14</maxWeakCount>
      <stageThreshold>-1.2467610836029053e+00</stageThreshold>
      <weakClassifiers>
        <_>
          <internalNodes>
            0 -1 195 -606345217 2105014031 1360704398 -406399650
            2078206603 1703350659 -1443922245 -134217729</internalNodes>
          <leafValues>
            -5.9960091114044189e-01 8.5714288055896759e-02</leafValues></_>
        <_>
          <internalNodes>
            0 -1 55 -371282681 1677902338 391629640 -271660423
            1715560883 -310050421 1419504474 1693971043</internalNodes>
          <leafValues>
            -4.2119827866554260e-01 1.5369223058223724e-01</leafValues></_>
        <_>
          <internalNodes>
            0 -1 217 -1916531403 -343731521 -509877723 -241446442
            684526670 301708385 1661692199 7142175</internalNodes>
          <leafValues>
            -4.5744749903678894e-01 1.7867982387542725e-01</leafValues></_>
        <_>
          <internalNodes>
            0 -1 99 1856780501 935577969 277942620 855771861 1116474271
            -1627213694 -473287528 218043117</internalNodes>
          <leafValues>
            -2.8497117757797241e-01 2.9848748445510864e-01</leafValues></_>
        <_>
          <internalNodes>
            0 -1 112 -320810392 2117470284 -1593613236 -1358851135
            -1844049177 -257408848 84671896 -525875830</internalNodes>
          <leafValues>
            -3.3678939938545227e-01 2.5721436738967896e-01</leafValues></_>
        <_>
          <internalNodes>
            0 -1 159 -307240185 1358163711 1073737698 -575729947
            -3791181 1086191487 -977816134 -168834261</internalNodes>
          <leafValues>
            -2.1233506500720978e-01 4.0022587776184082e-01</leafValues></_>
        <_>
          <internalNodes>
            0 -1 95 1234346720 -1092661410 -469073146 516170446
            1334446941 723863954 -1713107262 -1280088165</internalNodes>
          <leafValues>
            -3.4951585531234741e-01 2.6361376047134399e-01</leafValues></_>
        <_>
          <internalNodes>
            0 -1 203 1607411614 68215275 -603972250 -896228914
            -1044164171 1084293883 1172041480 1635155966</internalNodes>
          <leafValues>
            -4.1670274734497070e-01 2.1828332543373108e-01</leafValues></_>
        <_>
          <internalNodes>
            0 -1 173 -816416918 363168089 -518942311 732775304 849025699
            816623650 -1198822316 -843470545</internalNodes>
          <leafValues>
            -3.1419736146926880e-01 2.9549905657768250e-01</leafValues></_>
        <_>
          <internalNodes>
            0 -1 37 47089955 119953722 -478031348 573117832 984487363
            -768617341 1746525181 1547003184</internalNodes>
          <leafValues>
            -4.7005257010459900e-01 1.9173315167427063e-01</leafValues></_>
        <_>
          <internalNodes>
            0 -1 76 -1630110609 1074934034 -1018973954 -1020241346
            -774673881 657621762 1489719572 -1820617153</internalNodes>
          <leafValues>
            -3.7739685177803040e-01 2.4843709170818329e-01</leafValues></_>
        <_>
          <internalNodes>
            0 -1 89 2146981744 -1600858676 -939236276 1754073749
            -1315218224 -398261621 -1946058865 567043281</internalNodes>
          <leafValues>
            -4.9315118789672852e-01 1.9302861392498016e-01</leafValues></_>
        <_>
          <internalNodes>
            0 -1 154 -1438040995 -642266132 1051631262 -1321226762
            1996355218 1207762928 1476302764 -88140293</internalNodes>
          <leafValues>
            -2.5770780444145203e-01 3.8226363062858582e-01</leafValues></_>
        <_>
          <internalNodes>
            0 -1 110 -1257758112 1209176478 4752520 659062934 1898009552
            422023506 -2046281724 621076518</internalNodes>
          <leafValues>
            -7.1460759639739990e-01 1.3013477623462677e-01</leafValues></_></weakClassifiers></_>
    <!-- stage 11 -->
    <_>
      <maxWeakCount>12</maxWeakCount>
      <stageThreshold>-1.3313120603561401e+00</stageThreshold>
      <weakClassifiers>
        <_>
          <internalNodes>
            0 -1 1 -536872961 -38022599 -149696161 -4077061 -819739905
            -16035413 -1869742485 -2073</internalNodes>
          <leafValues>
            -5.9291464090347290e-01 2.0408163964748383e-01</leafValues></_>
        <_>
          <internalNodes>
            0 -1 192 -1432368203 -1562392617 -783716428 -369457310
            -1115180107 -1455648559 1574053007 -950027557</internalNodes>
          <leafValues>
            -3.0949658155441284e-01 2.5187060236930847e-01</leafValues></_>
        <_>
          <internalNodes>
            0 -1 61 805113077 802009349 671754751 785799038 1191251178
            -143458128 -393312178 -32689537</internalNodes>
          <leafValues>
            -3.2342389225959778e-01 2.4617090821266174e-01</leafValues></_>
        <_>
          <internalNodes>
            0 -1 72 6187690 -1535114298 -1046707812 -1586636220
            2014804214 1351247357 1531346728 349398386</internalNodes>
          <leafValues>
            -5.0836962461471558e-01 1.5352663397789001e-01</leafValues></_>
        <_>
          <internalNodes>
            0 -1 205 729351960 555270602 -770485996 618013296 575216884
            350421668 705649376 620241668</internalNodes>
          <leafValues>
            -7.2203749418258667e-01 1.3761509954929352e-01</leafValues></_>
        <_>
          <internalNodes>
            0 -1 127 1654653090 533365010 -257522866 -1946247598
            -685427992 109152392 -1550241780 5382387</internalNodes>
          <leafValues>
            -4.6785897016525269e-01 1.6932907700538635e-01</leafValues></_>
        <_>
          <internalNodes>
            0 -1 170 -1055134584 -1203747686 -183300031 -1652490146
            -2073032023 957402768 -418729864 -1419032222</internalNodes>
          <leafValues>
            -2.9017913341522217e-01 2.9086691141128540e-01</leafValues></_>
        <_>
          <internalNodes>
            0 -1 81 -152793566 853709213 -1878801980 352228378 826425593
            379300877 -771485344 1434498069</internalNodes>
          <leafValues>
            -4.9174430966377258e-01 1.8395291268825531e-01</leafValues></_>
        <_>
          <internalNodes>
            0 -1 223 -1546171065 744239226 -2096769790 171725258
            2060131160 539559330 1921606244 284441900</internalNodes>
          <leafValues>
            -6.5017169713973999e-01 1.3180227577686310e-01</leafValues></_>
        <_>
          <internalNodes>
            0 -1 187 -1142588128 238981398 -2028874362 -1108049694
            -1597437342 671762464 18020432 1313085463</internalNodes>
          <leafValues>
            -5.4981333017349243e-01 1.5618883073329926e-01</leafValues></_>
        <_>
          <internalNodes>
            0 -1 122 1996488691 -714801287 -83910731 100380527 -67117380
            234684277 -1024000135 -1201676425</internalNodes>
          <leafValues>
            -2.1990728378295898e-01 4.5301383733749390e-01</leafValues></_>
        <_>
          <internalNodes>
            0 -1 145 582676206 -619869365 1526961229 1674821653
            1241920121 -773214205 -1962676636 1425528398</internalNodes>
          <leafValues>
            -3.3525601029396057e-01 2.7576446533203125e-01</leafValues></_></weakClassifiers></_>
    <!-- stage 12 -->
    <_>
      <maxWeakCount>12</maxWeakCount>
      <stageThreshold>-1.2260872125625610e+00</stageThreshold>
      <weakClassifiers>
        <_>
          <internalNodes>
            0 -1 86 -265729 2002508530 1130230237 -78288515 -56499713
            -135591295 -812674497 -4114</internalNodes>
          <leafValues>
            -5.9557867050170898e-01 1.6864608228206635e-01</leafValues></_>
        <_>
          <internalNodes>
            0 -1 177 1473210130 278098399 -930338126 -292355680
            1385345292 -1165252573 -286103552 -1334838188</internalNodes>
          <leafValues>
            -4.6222797036170959e-01 1.2664182484149933e-01</leafValues></_>
        <_>
          <internalNodes>
            0 -1 33 643173100 -1502186261 1412495518 644798754 495285303
            1101745467 2017729029 1687448949</internalNodes>
          <leafValues>
            -7.3247689008712769e-01 1.0466901212930679e-01</leafValues></_>
        <_>
          <internalNodes>
            0 -1 158 -2107007872 1433829370 -4669842 -50974854
            -1917348897 214155134 -1080001380 -218153253</internalNodes>
          <leafValues>
            -2.4228568375110626e-01 3.4819510579109192e-01</leafValues></_>
        <_>
          <internalNodes>
            0 -1 9 1221632762 1451790439 1971423102 2110261444
            1635981856 -1985934162 1804749329 204884545</internalNodes>
          <leafValues>
            -4.2354238033294678e-01 1.9439668953418732e-01</leafValues></_>
        <_>
          <internalNodes>
            0 -1 41 659786286 1021764190 356581412 479103946 1117063719
            100895066 1527618564 1963239142</internalNodes>
          <leafValues>
            -5.1112216711044312e-01 1.7026975750923157e-01</leafValues></_>
        <_>
          <internalNodes>
            0 -1 73 -1963537584 39470058 -720037272 781174847 1678395508
            282134812 547835522 1340932452</internalNodes>
          <leafValues>
            -5.6385338306427002e-01 1.4761121571063995e-01</leafValues></_>
        <_>
          <internalNodes>
            0 -1 48 -173539425 1768734499 729743071 2062528093
            -1007264043 1022820215 -1108877666 -752355385</internalNodes>
          <leafValues>
            -2.2514662146568298e-01 4.2047971487045288e-01</leafValues></_>
        <_>
          <internalNodes>
            0 -1 7 -1474123525 785825819 -1942955798 -1941650854
            19882430 1686872203 -1333038845 -60562589</internalNodes>
          <leafValues>
            -3.0638095736503601e-01 2.9957446455955505e-01</leafValues></_>
        <_>
          <internalNodes>
            0 -1 94 358743997 71242203 39973182 1033192682 1665368293
            -307736440 1770779275 -1327624902</internalNodes>
          <leafValues>
            -2.7709835767745972e-01 3.3730593323707581e-01</leafValues></_>
        <_>
          <internalNodes>
            0 -1 188 -899090398 -1589128739 -2126344748 -538013275
            1905593282 2201769 -1071611367 -136105556</internalNodes>
          <leafValues>
            -3.1816524267196655e-01 2.8472962975502014e-01</leafValues></_>
        <_>
          <internalNodes>
            0 -1 23 -493441918 734871774 1497923996 764301794 1186447379
            578306214 671353716 1666506979</internalNodes>
          <leafValues>
            -5.5847948789596558e-01 1.6747665405273438e-01</leafValues></_></weakClassifiers></_>
    <!-- stage 13 -->
    <_>
      <maxWeakCount>13</maxWeakCount>
      <stageThreshold>-1.2737729549407959e+00</stageThreshold>
      <weakClassifiers>
        <_>
          <internalNodes>
            0 -1 197 -36702785 -1562974025 -1878687278 -380177846
            1489233855 864059521 1654113259 -436338769</internalNodes>
          <leafValues>
            -6.1887609958648682e-01 -5.9639390558004379e-02</leafValues></_>
        <_>
          <internalNodes>
            0 -1 162 -39943356 -1089039599 -1005545925 -1857073451
            9155359 -811443837 -1698112256 -1472315169</internalNodes>
          <leafValues>
            -3.6737501621246338e-01 1.8383009731769562e-01</leafValues></_>
        <_>
          <internalNodes>
            0 -1 160 1175842320 1037533310 -1056693796 770679116
            136074431 -1974058493 1238118585 2147218859</internalNodes>
          <leafValues>
            -3.0786490440368652e-01 2.4485614895820618e-01</leafValues></_>
        <_>
          <internalNodes>
            0 -1 19 884369436 1920622239 -469644850 133475662 358703220
            31638630 -1857627860 1167091316</internalNodes>
          <leafValues>
            -5.1737803220748901e-01 1.4669334888458252e-01</leafValues></_>
        <_>
          <internalNodes>
            0 -1 49 883571895 734717429 1749993898 -2133307299 190149493
            1611217544 293679888 -577970316</internalNodes>
          <leafValues>
            -4.0252661705017090e-01 2.1794568002223969e-01</leafValues></_>
        <_>
          <internalNodes>
            0 -1 63 645942054 -1514385335 663877212 210641109 998902777
            1881915523 1753871343 337643813</internalNodes>
          <leafValues>
            -5.6680577993392944e-01 1.4303860068321228e-01</leafValues></_>
        <_>
          <internalNodes>
            0 -1 75 -1872076122 981947864 538386446 1879098975 579133768
            -1521817464 -246205404 603857550</internalNodes>
          <leafValues>
            -4.6180114150047302e-01 1.7396514117717743e-01</leafValues></_>
        <_>
          <internalNodes>
            0 -1 22 2143419339 -1285029894 1862270968 2125838331
            938745461 -597238145 -536903719 -304323618</internalNodes>
          <leafValues>
            -2.3775881528854370e-01 3.5308548808097839e-01</leafValues></_>
        <_>
          <internalNodes>
            0 -1 109 1309483842 1330791608 1249446944 1319621115
            1279826832 1090668558 -1986058323 283156446</internalNodes>
          <leafValues>
            -4.8538526892662048e-01 1.9117161631584167e-01</leafValues></_>
        <_>
          <internalNodes>
            0 -1 104 -935901686 1583542028 -518536051 1969914378
            -510917912 856367443 -1107063186 165237110</internalNodes>
          <leafValues>
            -3.8078036904335022e-01 2.2786007821559906e-01</leafValues></_>
        <_>
          <internalNodes>
            0 -1 31 1156426862 753172683 1264681380 235282754 1847817940
            2064324997 2023390068 2100885882</internalNodes>
          <leafValues>
            -5.0210058689117432e-01 1.8657954037189484e-01</leafValues></_>
        <_>
          <internalNodes>
            0 -1 179 -740950122 -193347585 -1493295307 1106034228
            -394889990 1472100215 1828527597 -235016195</internalNodes>
          <leafValues>
            -2.7314481139183044e-01 3.4401163458824158e-01</leafValues></_>
        <_>
          <internalNodes>
            0 -1 12 788277930 -536027045 1342353591 1915376011
            1888616977 -343435125 -2107047914 -1505465548</internalNodes>
          <leafValues>
            -5.5474585294723511e-01 1.6584125161170959e-01</leafValues></_></weakClassifiers></_>
    <!-- stage 14 -->
    <_>
      <maxWeakCount>13</maxWeakCount>
      <stageThreshold>-1.4938510656356812e+00</stageThreshold>
      <weakClassifiers>
        <_>
          <internalNodes>
            0 -1 146 -543687809 -1715513197 -1149086473 -416812641
            -53814275 -38718872 1762028797 -93328165</internalNodes>
          <leafValues>
            -6.1809760332107544e-01 -3.7681158632040024e-02</leafValues></_>
        <_>
          <internalNodes>
            0 -1 120 1220662710 -2024607646 352510280 -686406318
            -250758503 -1497841461 -778178003 -68222162</internalNodes>
          <leafValues>
            -3.2621091604232788e-01 2.1240203082561493e-01</leafValues></_>
        <_>
          <internalNodes>
            0 -1 152 -1396562248 755892314 -2130705396 81039810
            371267324 268552833 1903036340 212235293</internalNodes>
          <leafValues>
            -6.8054777383804321e-01 1.1030105501413345e-01</leafValues></_>
        <_>
          <internalNodes>
            0 -1 6 776875555 713093170 270229894 35823692 1795620966
            1880814251 2005557360 100684032</internalNodes>
          <leafValues>
            -7.5645512342453003e-01 1.3371837139129639e-01</leafValues></_>
        <_>
          <internalNodes>
            0 -1 166 -417407164 -717277479 -1027538764 -1920007900
            1165367988 1159408649 -926182577 163788587</internalNodes>
          <leafValues>
            -3.4688892960548401e-01 2.2151395678520203e-01</leafValues></_>
        <_>
          <internalNodes>
            0 -1 212 893991428 -2133425905 -2116337539 1291313816
            -1022308162 1115719864 1621162141 347746604</internalNodes>
          <leafValues>
            -5.0061404705047607e-01 1.5717622637748718e-01</leafValues></_>
        <_>
          <internalNodes>
            0 -1 209 -1499977373 1876555971 -1248530373 1888704611
            -2093796068 -1348091671 1057258772 175120200</internalNodes>
          <leafValues>
            -4.9689558148384094e-01 1.5919600427150726e-01</leafValues></_>
        <_>
          <internalNodes>
            0 -1 132 -25890054 -604033346 -134862171 -141317909
            1851766492 392134644 637509565 -1266714389</internalNodes>
          <leafValues>
            -2.3796617984771729e-01 3.6480516195297241e-01</leafValues></_>
        <_>
          <internalNodes>
            0 -1 175 -103873280 1898890185 1097437229 -1491590653
            -217953602 -25083513 -1714787858 1488432676</internalNodes>
          <leafValues>
            -3.7939509749412537e-01 2.4117420613765717e-01</leafValues></_>
        <_>
          <internalNodes>
            0 -1 69 -1559539456 1342788745 1833993262 -2059041527
            1535876085 31136900 -1039513202 1509289920</internalNodes>
          <leafValues>
            -3.7072300910949707e-01 2.3958331346511841e-01</leafValues></_>
        <_>
          <internalNodes>
            0 -1 16 -1634540339 1368645587 -1069492114 -1608097210
            12945542 1837875203 -226246314 -36769165</internalNodes>
          <leafValues>
            -2.7918770909309387e-01 3.3030751347541809e-01</leafValues></_>
        <_>
          <internalNodes>
            0 -1 142 -2109176672 39142458 407916650 1657170711 235385826
            -1571663519 805528476 -1334428530</internalNodes>
          <leafValues>
            -3.9915755391120911e-01 2.3070564866065979e-01</leafValues></_>
        <_>
          <internalNodes>
            0 -1 105 1313761384 809525769 403791514 -110081826 160258612
            920764490 -1637111814 -1757419461</internalNodes>
          <leafValues>
            -3.2668030261993408e-01 2.9227915406227112e-01</leafValues></_></weakClassifiers></_>
    <!-- stage 15 -->
    <_>
      <maxWeakCount>13</maxWeakCount>
      <stageThreshold>-1.2429742813110352e+00</stageThreshold>
      <weakClassifiers>
        <_>
          <internalNodes>
            0 -1 17 -705168417 1535068295 -939142689 -79474233
            2063828879 -1232895614 -2145665160 -257</internalNodes>
          <leafValues>
            -5.9641551971435547e-01 7.4380166828632355e-02</leafValues></_>
        <_>
          <internalNodes>
            0 -1 35 651242726 1279595294 -531592069 1692070278
            1016153054 -1164247024 1752799436 1652480370</internalNodes>
          <leafValues>
            -4.8368442058563232e-01 1.0085290670394897e-01</leafValues></_>
        <_>
          <internalNodes>
            0 -1 181 1740809122 -2072194658 -1045233192 1822218130
            143543028 831414321 -808512953 1080302406</internalNodes>
          <leafValues>
            -5.5901694297790527e-01 1.2962360680103302e-01</leafValues></_>
        <_>
          <internalNodes>
            0 -1 68 -427776177 -1431666659 -804153122 1942229056
            -855381457 1019060685 1134787338 -2126544733</internalNodes>
          <leafValues>
            -2.9930323362350464e-01 2.5831052660942078e-01</leafValues></_>
        <_>
          <internalNodes>
            0 -1 27 4326016 1995116618 423625884 381686086 656032588
            595705917 1652620077 1994297925</internalNodes>
          <leafValues>
            -5.5242514610290527e-01 1.6587555408477783e-01</leafValues></_>
        <_>
          <internalNodes>
            0 -1 60 -1864822758 1020942809 -1010618114 -245443830
            569334054 1638484110 1148070796 -289375844</internalNodes>
          <leafValues>
            -3.5086658596992493e-01 2.1639408171176910e-01</leafValues></_>
        <_>
          <internalNodes>
            0 -1 131 471516302 1375332866 654426376 -1592864839
            2110499313 805442786 1509355679 1651753743</internalNodes>
          <leafValues>
            -3.1135725975036621e-01 2.5274127721786499e-01</leafValues></_>
        <_>
          <internalNodes>
            0 -1 85 224576066 814765506 1637140770 -880500672 101812262
            -711639023 1671325773 5529993</internalNodes>
          <leafValues>
            -5.6510835886001587e-01 1.5116211771965027e-01</leafValues></_>
        <_>
          <internalNodes>
            0 -1 190 443538720 135054902 -532676221 -481042510
            1636278539 1083032080 -1444212502 -778097785</internalNodes>
          <leafValues>
            -3.1964033842086792e-01 2.6200962066650391e-01</leafValues></_>
        <_>
          <internalNodes>
            0 -1 210 -1454174348 1479885003 -217870114 -909254260
            -1970552189 545787984 1137064495 952781508</internalNodes>
          <leafValues>
            -3.9478322863578796e-01 2.1947957575321198e-01</leafValues></_>
        <_>
          <internalNodes>
            0 -1 161 -1185976840 -1751162284 -1861212727 776393360
            -1433390299 -1451208686 960127213 -1881386943</internalNodes>
          <leafValues>
            -3.5817876458168030e-01 2.4578487873077393e-01</leafValues></_>
        <_>
          <internalNodes>
            0 -1 163 2133131783 295219202 302367121 -1383476973
            -503099140 1435049522 1795918348 475222928</internalNodes>
          <leafValues>
            -3.6559247970581055e-01 2.3660849034786224e-01</leafValues></_>
        <_>
          <internalNodes>
            0 -1 206 -1888023573 339182147 293719170 -1941540522
            -796370623 -1593159479 1884948743 -1576866340</internalNodes>
          <leafValues>
            -4.1303640604019165e-01 2.1400786936283112e-01</leafValues></_></weakClassifiers></_>
    <!-- stage 16 -->
    <_>
      <maxWeakCount>12</maxWeakCount>
      <stageThreshold>-1.1932243108749390e+00</stageThreshold>
      <weakClassifiers>
        <_>
          <internalNodes>
            0 -1 200 -706224789 1406851151 1361179095 2011001221
            -223820214 -4666485 -886310061 -629154865</internalNodes>
          <leafValues>
            -6.5081965923309326e-01 -1.6367076337337494e-01</leafValues></_>
        <_>
          <internalNodes>
            0 -1 137 -935289760 -194783931 -129772581 -350461669
            998891991 808177674 1241617080 64039620</internalNodes>
          <leafValues>
            -4.6674203872680664e-01 1.1286595463752747e-01</leafValues></_>
        <_>
          <internalNodes>
            0 -1 67 -343530840 697204828 -1809953940 -1864542132
            537547350 34916375 -1446523558 580076162</internalNodes>
          <leafValues>
            -4.4012293219566345e-01 1.7300626635551453e-01</leafValues></_>
        <_>
          <internalNodes>
            0 -1 20 -393244140 -1081013758 875106518 173985811 591987313
            579174410 -1197708520 1004544658</internalNodes>
          <leafValues>
            -4.6035328507423401e-01 2.0002663135528564e-01</leafValues></_>
        <_>
          <internalNodes>
            0 -1 129 1777963586 2055816067 356626624 1804058830
            145684119 409740545 -593622968 -1495455993</internalNodes>
          <leafValues>
            -3.4857872128486633e-01 2.3189301788806915e-01</leafValues></_>
        <_>
          <internalNodes>
            0 -1 194 1252603892 -124133303 293781902 743887124
            -272275140 -1308409847 2078256724 1648956918</internalNodes>
          <leafValues>
            -4.1889086365699768e-01 1.9850513339042664e-01</leafValues></_>
        <_>
          <internalNodes>
            0 -1 102 -918846613 -931954691 2061168557 -1287173465
            1669328377 -33654860 1073491962 -18421</internalNodes>
          <leafValues>
            -1.8569098412990570e-01 4.6874415874481201e-01</leafValues></_>
        <_>
          <internalNodes>
            0 -1 148 154112751 91607067 -117224127 217990227 1078360730
            817475603 -775382139 2106844156</internalNodes>
          <leafValues>
            -3.0487197637557983e-01 3.0658131837844849e-01</leafValues></_>
        <_>
          <internalNodes>
            0 -1 59 -2062305141 306233344 -250116577 429773011
            1938356304 1380517059 -1635753028 -185148500</internalNodes>
          <leafValues>
            -3.1066051125526428e-01 2.9362428188323975e-01</leafValues></_>
        <_>
          <internalNodes>
            0 -1 111 -664228160 -152301550 606243044 -443127613
            -1325237857 1350805544 164340412 156380962</internalNodes>
          <leafValues>
            -3.8647064566612244e-01 2.3262062668800354e-01</leafValues></_>
        <_>
          <internalNodes>
            0 -1 107 385785460 1497874561 -1742593896 134332829
            -216376944 -1441134567 1930015671 -1276309150</internalNodes>
          <leafValues>
            -3.4477156400680542e-01 2.6133787631988525e-01</leafValues></_>
        <_>
          <internalNodes>
            0 -1 96 1486651404 1022690117 1552107660 365838739
            1817215196 1971864327 1093847600 -1448935823</internalNodes>
          <leafValues>
            -3.7209618091583252e-01 2.4579134583473206e-01</leafValues></_></weakClassifiers></_>
    <!-- stage 17 -->
    <_>
      <maxWeakCount>14</maxWeakCount>
      <stageThreshold>-1.2853732109069824e+00</stageThreshold>
      <weakClassifiers>
        <_>
          <internalNodes>
            0 -1 118 -69208577 -686191141 -1827966507 -33697321
            -932448013 -14040893 -360457217 -5250322</internalNodes>
          <leafValues>
            -5.8836835622787476e-01 1.4925372600555420e-01</leafValues></_>
        <_>
          <internalNodes>
            0 -1 78 -1442784214 -376305705 -619193313 -615462585
            -1274834505 -1097301935 2030915759 -1929263369</internalNodes>
          <leafValues>
            -3.2552644610404968e-01 2.2480276226997375e-01</leafValues></_>
        <_>
          <internalNodes>
            0 -1 10 1787210347 760497715 306266588 169132534 835536543
            -402431061 162120035 271444544</internalNodes>
          <leafValues>
            -4.2837253212928772e-01 1.8331786990165710e-01</leafValues></_>
        <_>
          <internalNodes>
            0 -1 123 1392150069 -1220145537 -69896 -1118135561
            -680032580 -1744832658 1597816649 -1547858774</internalNodes>
          <leafValues>
            -2.5552916526794434e-01 3.2080319523811340e-01</leafValues></_>
        <_>
          <internalNodes>
            0 -1 213 -2080171515 619217027 -867593347 1822352298
            152955809 601240459 1480868368 81807725</internalNodes>
          <leafValues>
            -5.0125783681869507e-01 2.0061650872230530e-01</leafValues></_>
        <_>
          <internalNodes>
            0 -1 193 -69355624 -1518796948 -402718746 -445448338
            938464350 985464831 871880559 -1543511049</internalNodes>
          <leafValues>
            -2.7661508321762085e-01 3.2117724418640137e-01</leafValues></_>
        <_>
          <internalNodes>
            0 -1 106 -565239294 -737275216 -1593817050 1746555399
            1652609100 1642145998 -1601930932 -1867365333</internalNodes>
          <leafValues>
            -3.7402826547622681e-01 2.5418728590011597e-01</leafValues></_>
        <_>
          <internalNodes>
            0 -1 207 1229523456 491385163 -787933828 1439384320
            1627844685 -1726603093 1275665610 -539582162</internalNodes>
          <leafValues>
            -3.1897032260894775e-01 2.7944695949554443e-01</leafValues></_>
        <_>
          <internalNodes>
            0 -1 189 -443486800 1305777881 -268090271 -446377501
            413156481 -359954349 1212887303 502725569</internalNodes>
          <leafValues>
            -3.4971913695335388e-01 2.5718903541564941e-01</leafValues></_>
        <_>
          <internalNodes>
            0 -1 156 -1258319648 -1648144047 -1056799294 261136633
            -1793879426 531114010 944052970 -403063093</internalNodes>
          <leafValues>
            -2.8204900026321411e-01 3.4741389751434326e-01</leafValues></_>
        <_>
          <internalNodes>
            0 -1 155 1977673908 -231461194 -1360040079 -1216446854
            -1439599387 -234881061 -8678310 -947946378</internalNodes>
          <leafValues>
            -2.6443660259246826e-01 3.4935173392295837e-01</leafValues></_>
        <_>
          <internalNodes>
            0 -1 38 45810194 -1823993722 -1056632682 1520095336
            -393635698 293767819 226704229 896797970</internalNodes>
          <leafValues>
            -4.9821576476097107e-01 1.9935859739780426e-01</leafValues></_>
        <_>
          <internalNodes>
            0 -1 91 1735809722 -22288465 -1099077073 468709372
            2137946035 1172570076 -1124116775 -1648979345</internalNodes>
          <leafValues>
            -2.6765811443328857e-01 3.7550041079521179e-01</leafValues></_>
        <_>
          <internalNodes>
            0 -1 135 -776156495 -1615660034 1879031509 905751289
            -2047046553 -1384136708 2129239927 -1753545101</internalNodes>
          <leafValues>
            -2.6363748311996460e-01 3.8385134935379028e-01</leafValues></_></weakClassifiers></_>
    <!-- stage 18 -->
    <_>
      <maxWeakCount>13</maxWeakCount>
      <stageThreshold>-1.3357409238815308e+00</stageThreshold>
      <weakClassifiers>
        <_>
          <internalNodes>
            0 -1 117 -138938401 1495257137 -1056909825 -572799659
            853531295 -99909109 -114563329 -1069142</internalNodes>
          <leafValues>
            -5.9317582845687866e-01 1.0467705875635147e-01</leafValues></_>
        <_>
          <internalNodes>
            0 -1 168 1952434432 -2133990565 -263025256 -1310214944
            -1177564274 546295832 1654799592 -109175625</internalNodes>
          <leafValues>
            -3.2151877880096436e-01 2.3374484479427338e-01</leafValues></_>
        <_>
          <internalNodes>
            0 -1 45 7604968 1406419356 -2013178056 -771022695
            -1584696708 1510081162 1073957744 90202588</internalNodes>
          <leafValues>
            -5.7456636428833008e-01 1.3287268579006195e-01</leafValues></_>
        <_>
          <internalNodes>
            0 -1 227 604120336 613979608 -1325283704 1819302152
            1344086529 818926728 173369382 1687247216</internalNodes>
          <leafValues>
            -6.5613013505935669e-01 1.5200366079807281e-01</leafValues></_>
        <_>
          <internalNodes>
            0 -1 66 -1564624142 -67114396 -285217035 -234884599
            125304831 -721420417 -1644744919 -1917462541</internalNodes>
          <leafValues>
            -2.5343823432922363e-01 3.5156956315040588e-01</leafValues></_>
        <_>
          <internalNodes>
            0 -1 26 634866926 -1107211531 -1870347774 897728778
            1351608129 -99950583 411465799 -1491782675</internalNodes>
          <leafValues>
            -3.3207193017005920e-01 2.7467101812362671e-01</leafValues></_>
        <_>
          <internalNodes>
            0 -1 71 1514379814 2040300032 1150879582 499515730
            1629080494 2055881506 -1516732116 1002351315</internalNodes>
          <leafValues>
            -3.0847972631454468e-01 3.0188837647438049e-01</leafValues></_>
        <_>
          <internalNodes>
            0 -1 113 -893287072 2080871553 -2080321387 71729179
            103003069 714670794 956711464 1133998410</internalNodes>
          <leafValues>
            -3.8141459226608276e-01 2.5351667404174805e-01</leafValues></_>
        <_>
          <internalNodes>
            0 -1 80 1718475681 1622769196 984890347 -17141961 913829780
            905308104 1824439447 -17422982</internalNodes>
          <leafValues>
            -2.9273539781570435e-01 3.2074287533760071e-01</leafValues></_>
        <_>
          <internalNodes>
            0 -1 134 1687408566 -1835431757 -2122243156 -506961618
            1787916521 885600393 832584324 1099678751</internalNodes>
          <leafValues>
            -3.8315159082412720e-01 2.5337421894073486e-01</leafValues></_>
        <_>
          <internalNodes>
            0 -1 198 122445568 124838944 135430607 -1924144778
            -1977003890 1076592641 943928641 966695926</internalNodes>
          <leafValues>
            -4.6352657675743103e-01 2.0528413355350494e-01</leafValues></_>
        <_>
          <internalNodes>
            0 -1 83 1757582115 1846985117 1363247111 -785182270
            -1962190664 -511178616 -525684681 -1974699035</internalNodes>
          <leafValues>
            -3.4170082211494446e-01 3.0804979801177979e-01</leafValues></_>
        <_>
          <internalNodes>
            0 -1 226 852523301 1695977928 -913423190 228115354
            1082362437 538034186 -720420660 1421620096</internalNodes>
          <leafValues>
            -5.2492082118988037e-01 1.9717890024185181e-01</leafValues></_></weakClassifiers></_>
    <!-- stage 19 -->
    <_>
      <maxWeakCount>12</maxWeakCount>
      <stageThreshold>-1.4825338125228882e+00</stageThreshold>
      <weakClassifiers>
        <_>
          <internalNodes>
            0 -1 39 -141575209 2068156207 1501815423 1702994719
            -527843905 -813463398 1763346687 -6296589</internalNodes>
          <leafValues>
            -6.0522788763046265e-01 8.7719298899173737e-02</leafValues></_>
        <_>
          <internalNodes>
            0 -1 211 203293015 1473436085 -1055341153 -284632122
            1518415708 822841385 571955795 707213685</internalNodes>
          <leafValues>
            -4.9549522995948792e-01 1.2128662317991257e-01</leafValues></_>
        <_>
          <internalNodes>
            0 -1 74 1479074054 -1593723898 -368630783 936878849
            1460098987 1026589201 171213084 1040179270</internalNodes>
          <leafValues>
            -3.5534426569938660e-01 2.3357099294662476e-01</leafValues></_>
        <_>
          <internalNodes>
            0 -1 40 115573522 -1701178896 -669968110 -1006114501
            -1960734439 1369473040 346064905 391130956</internalNodes>
          <leafValues>
            -4.4337570667266846e-01 2.3027911782264709e-01</leafValues></_>
        <_>
          <internalNodes>
            0 -1 171 995873392 -70741662 286249152 -1855463211 411926664
            845234443 1616765683 -731436877</internalNodes>
          <leafValues>
            -3.2071757316589355e-01 2.9751127958297729e-01</leafValues></_>
        <_>
          <internalNodes>
            0 -1 153 182627595 2135216410 -1861500834 -1882029563
            -586565063 -1012850394 -934914020 1515661296</internalNodes>
          <leafValues>
            -3.5350131988525391e-01 2.6645344495773315e-01</leafValues></_>
        <_>
          <internalNodes>
            0 -1 143 1227277314 110609441 5329158 -367984297 1359667299
            -1867480943 -2130206263 -1025914365</internalNodes>
          <leafValues>
            -3.4904101490974426e-01 2.7083447575569153e-01</leafValues></_>
        <_>
          <internalNodes>
            0 -1 214 315688247 575706330 816037908 758499008 1786912786
            1745748609 -922578864 92580197</internalNodes>
          <leafValues>
            -5.3095930814743042e-01 1.8470862507820129e-01</leafValues></_>
        <_>
          <internalNodes>
            0 -1 18 -244318253 1962803158 -8218 1571680166 -1283606599
            2113134452 -1077979816 -914632710</internalNodes>
          <leafValues>
            -2.2502116858959198e-01 4.6482747793197632e-01</leafValues></_>
        <_>
          <internalNodes>
            0 -1 54 -1100237846 1103597696 1359052868 1631711295
            -736853375 1243056266 -1039546255 1325122390</internalNodes>
          <leafValues>
            -3.0882599949836731e-01 3.4450957179069519e-01</leafValues></_>
        <_>
          <internalNodes>
            0 -1 57 622237878 2059646336 -1804361792 588988419
            -2012619852 663552011 687899246 2005663816</internalNodes>
          <leafValues>
            -4.5813792943954468e-01 2.2558629512786865e-01</leafValues></_>
        <_>
          <internalNodes>
            0 -1 176 -258539410 1058226331 671121413 -1232822221
            998604974 -1174175613 -888978718 2018122603</internalNodes>
          <leafValues>
            -3.5740444064140320e-01 2.9436740279197693e-01</leafValues></_></weakClassifiers></_></stages>
  <features>
    <_>
      <rect>
        0 0 1 1</rect></_>
    <_>
      <rect>
        0 0 4 3</rect></_>
    <_>
      <rect>
        0 0 4 7</rect></_>
    <_>
      <rect>
        0 0 5 4</rect></_>
    <_>
      <rect>
        0 0 6 3</rect></_>
    <_>
      <rect>
        0 0 8 7</rect></_>
    <_>
      <rect>
        0 1 1 1</rect></_>
    <_>
      <rect>
        0 1 1 2</rect></_>
    <_>
      <rect>
        0 1 3 3</rect></_>
    <_>
      <rect>
        0 1 6 1</rect></_>
    <_>
      <rect>
        0 2 1 1</rect></_>
    <_>
      <rect>
        0 2 3 4</rect></_>
    <_>
      <rect>
        0 3 1 3</rect></_>
    <_>
      <rect>
        0 3 2 3</rect></_>
    <_>
      <rect>
        0 3 3 5</rect></_>
    <_>
      <rect>
        0 4 1 2</rect></_>
    <_>
      <rect>
        0 4 1 3</rect></_>
    <_>
      <rect>
        0 4 2 5</rect></_>
    <_>
      <rect>
        0 5 5 6</rect></_>
    <_>
      <rect>
        0 6 2 4</rect></_>
    <_>
      <rect>
        0 8 3 5</rect></_>
    <_>
      <rect>
        0 8 8 5</rect></_>
    <_>
      <rect>
        0 9 6 5</rect></_>
    <_>
      <rect>
        0 10 4 3</rect></_>
    <_>
      <rect>
        0 12 2 2</rect></_>
    <_>
      <rect>
        0 12 3 1</rect></_>
    <_>
      <rect>
        0 14 1 2</rect></_>
    <_>
      <rect>
        0 14 8 3</rect></_>
    <_>
      <rect>
        0 15 8 3</rect></_>
    <_>
      <rect>
        0 16 8 2</rect></_>
    <_>
      <rect>
        0 18 1 2</rect></_>
    <_>
      <rect>
        0 18 4 2</rect></_>
    <_>
      <rect>
        0 18 6 2</rect></_>
    <_>
      <rect>
        0 20 1 1</rect></_>
    <_>
      <rect>
        0 21 1 1</rect></_>
    <_>
      <rect>
        0 21 2 1</rect></_>
    <_>
      <rect>
        1 0 1 1</rect></_>
    <_>
      <rect>
        1 0 2 1</rect></_>
    <_>
      <rect>
        1 0 4 2</rect></_>
    <_>
      <rect>
        1 1 3 3</rect></_>
    <_>
      <rect>
        1 1 7 5</rect></_>
    <_>
      <rect>
        1 5 2 3</rect></_>
    <_>
      <rect>
        1 5 2 4</rect></_>
    <_>
      <rect>
        1 5 2 5</rect></_>
    <_>
      <rect>
        1 5 3 5</rect></_>
    <_>
      <rect>
        1 7 1 4</rect></_>
    <_>
      <rect>
        1 12 2 4</rect></_>
    <_>
      <rect>
        1 15 4 3</rect></_>
    <_>
      <rect>
        1 16 3 2</rect></_>
    <_>
      <rect>
        1 18 1 1</rect></_>
    <_>
      <rect>
        1 18 1 2</rect></_>
    <_>
      <rect>
        1 18 7 2</rect></_>
    <_>
      <rect>
        1 21 1 1</rect></_>
    <_>
      <rect>
        2 0 7 2</rect></_>
    <_>
      <rect>
        2 2 2 7</rect></_>
    <_>
      <rect>
        2 2 3 2</rect></_>
    <_>
      <rect>
        2 8 4 4</rect></_>
    <_>
      <rect>
        2 10 7 3</rect></_>
    <_>
      <rect>
        2 11 2 3</rect></_>
    <_>
      <rect>
        2 14 1 1</rect></_>
    <_>
      <rect>
        2 17 1 1</rect></_>
    <_>
      <rect>
        2 21 2 1</rect></_>
    <_>
      <rect>
        2 21 3 1</rect></_>
    <_>
      <rect>
        3 0 1 1</rect></_>
    <_>
      <rect>
        3 0 6 3</rect></_>
    <_>
      <rect>
        3 0 6 6</rect></_>
    <_>
      <rect>
        3 2 3 2</rect></_>
    <_>
      <rect>
        3 3 2 3</rect></_>
    <_>
      <rect>
        3 3 3 2</rect></_>
    <_>
      <rect>
        3 4 4 6</rect></_>
    <_>
      <rect>
        3 6 1 1</rect></_>
    <_>
      <rect>
        3 6 2 3</rect></_>
    <_>
      <rect>
        3 6 3 3</rect></_>
    <_>
      <rect>
        3 7 4 3</rect></_>
    <_>
      <rect>
        3 8 3 3</rect></_>
    <_>
      <rect>
        3 10 1 2</rect></_>
    <_>
      <rect>
        3 17 1 1</rect></_>
    <_>
      <rect>
        4 1 1 1</rect></_>
    <_>
      <rect>
        4 1 2 1</rect></_>
    <_>
      <rect>
        4 5 5 6</rect></_>
    <_>
      <rect>
        4 9 4 3</rect></_>
    <_>
      <rect>
        4 11 2 3</rect></_>
    <_>
      <rect>
        4 12 2 2</rect></_>
    <_>
      <rect>
        5 0 3 1</rect></_>
    <_>
      <rect>
        5 0 6 3</rect></_>
    <_>
      <rect>
        5 8 4 3</rect></_>
    <_>
      <rect>
        6 0 4 6</rect></_>
    <_>
      <rect>
        6 0 6 2</rect></_>
    <_>
      <rect>
        6 0 6 4</rect></_>
    <_>
      <rect>
        6 1 6 7</rect></_>
    <_>
      <rect>
        6 3 2 4</rect></_>
    <_>
      <rect>
        6 5 3 2</rect></_>
    <_>
      <rect>
        6 5 4 2</rect></_>
    <_>
      <rect>
        6 8 2 4</rect></_>
    <_>
      <rect>
        6 12 6 3</rect></_>
    <_>
      <rect>
        6 14 1 1</rect></_>
    <_>
      <rect>
        6 14 2 3</rect></_>
    <_>
      <rect>
        6 15 6 3</rect></_>
    <_>
      <rect>
        6 17 4 2</rect></_>
    <_>
      <rect>
        6 21 3 1</rect></_>
    <_>
      <rect>
        7 0 3 2</rect></_>
    <_>
      <rect>
        7 7 1 1</rect></_>
    <_>
      <rect>
        7 9 1 3</rect></_>
    <_>
      <rect>
        7 10 3 1</rect></_>
    <_>
      <rect>
        7 11 1 1</rect></_>
    <_>
      <rect>
        7 12 1 1</rect></_>
    <_>
      <rect>
        7 17 1 1</rect></_>
    <_>
      <rect>
        8 3 3 2</rect></_>
    <_>
      <rect>
        8 9 1 3</rect></_>
    <_>
      <rect>
        8 9 3 3</rect></_>
    <_>
      <rect>
        8 10 3 1</rect></_>
    <_>
      <rect>
        8 11 1 1</rect></_>
    <_>
      <rect>
        8 12 1 1</rect></_>
    <_>
      <rect>
        8 13 1 2</rect></_>
    <_>
      <rect>
        8 13 3 2</rect></_>
    <_>
      <rect>
        8 14 1 1</rect></_>
    <_>
      <rect>
        9 0 1 1</rect></_>
    <_>
      <rect>
        9 0 2 3</rect></_>
    <_>
      <rect>
        9 0 2 4</rect></_>
    <_>
      <rect>
        9 0 5 2</rect></_>
    <_>
      <rect>
        9 1 2 5</rect></_>
    <_>
      <rect>
        9 2 2 1</rect></_>
    <_>
      <rect>
        9 2 5 2</rect></_>
    <_>
      <rect>
        9 4 1 1</rect></_>
    <_>
      <rect>
        9 7 2 4</rect></_>
    <_>
      <rect>
        9 10 1 1</rect></_>
    <_>
      <rect>
        9 11 1 1</rect></_>
    <_>
      <rect>
        9 14 1 1</rect></_>
    <_>
      <rect>
        9 16 1 1</rect></_>
    <_>
      <rect>
        9 18 2 1</rect></_>
    <_>
      <rect>
        9 21 2 1</rect></_>
    <_>
      <rect>
        10 7 3 4</rect></_>
    <_>
      <rect>
        10 11 1 1</rect></_>
    <_>
      <rect>
        10 13 1 1</rect></_>
    <_>
      <rect>
        10 16 2 1</rect></_>
    <_>
      <rect>
        10 19 1 1</rect></_>
    <_>
      <rect>
        10 21 2 1</rect></_>
    <_>
      <rect>
        11 1 1 2</rect></_>
    <_>
      <rect>
        11 6 1 2</rect></_>
    <_>
      <rect>
        11 6 1 4</rect></_>
    <_>
      <rect>
        11 9 4 3</rect></_>
    <_>
      <rect>
        11 10 1 1</rect></_>
    <_>
      <rect>
        11 15 1 1</rect></_>
    <_>
      <rect>
        11 17 3 1</rect></_>
    <_>
      <rect>
        12 0 1 1</rect></_>
    <_>
      <rect>
        12 1 3 7</rect></_>
    <_>
      <rect>
        12 1 4 2</rect></_>
    <_>
      <rect>
        12 2 3 4</rect></_>
    <_>
      <rect>
        12 4 4 6</rect></_>
    <_>
      <rect>
        12 8 2 5</rect></_>
    <_>
      <rect>
        12 8 3 2</rect></_>
    <_>
      <rect>
        12 10 4 3</rect></_>
    <_>
      <rect>
        12 12 3 4</rect></_>
    <_>
      <rect>
        13 1 3 2</rect></_>
    <_>
      <rect>
        13 9 1 1</rect></_>
    <_>
      <rect>
        13 10 1 1</rect></_>
    <_>
      <rect>
        13 11 1 1</rect></_>
    <_>
      <rect>
        13 11 1 2</rect></_>
    <_>
      <rect>
        13 12 1 1</rect></_>
    <_>
      <rect>
        13 12 2 2</rect></_>
    <_>
      <rect>
        13 15 3 3</rect></_>
    <_>
      <rect>
        13 21 1 1</rect></_>
    <_>
      <rect>
        14 0 3 1</rect></_>
    <_>
      <rect>
        14 1 3 2</rect></_>
    <_>
      <rect>
        14 1 3 3</rect></_>
    <_>
      <rect>
        14 1 3 4</rect></_>
    <_>
      <rect>
        14 5 2 3</rect></_>
    <_>
      <rect>
        14 6 1 1</rect></_>
    <_>
      <rect>
        14 8 1 1</rect></_>
    <_>
      <rect>
        14 9 1 1</rect></_>
    <_>
      <rect>
        14 10 1 1</rect></_>
    <_>
      <rect>
        14 13 1 1</rect></_>
    <_>
      <rect>
        14 13 1 2</rect></_>
    <_>
      <rect>
        14 15 2 2</rect></_>
    <_>
      <rect>
        14 15 3 3</rect></_>
    <_>
      <rect>
        15 0 2 3</rect></_>
    <_>
      <rect>
        15 0 2 4</rect></_>
    <_>
      <rect>
        15 0 3 2</rect></_>
    <_>
      <rect>
        15 1 3 5</rect></_>
    <_>
      <rect>
        15 4 3 4</rect></_>
    <_>
      <rect>
        15 4 3 5</rect></_>
    <_>
      <rect>
        15 6 3 5</rect></_>
    <_>
      <rect>
        15 7 3 5</rect></_>
    <_>
      <rect>
        15 11 1 1</rect></_>
    <_>
      <rect>
        15 12 1 1</rect></_>
    <_>
      <rect>
        15 12 2 4</rect></_>
    <_>
      <rect>
        15 21 2 1</rect></_>
    <_>
      <rect>
        15 21 3 1</rect></_>
    <_>
      <rect>
        16 11 1 1</rect></_>
    <_>
      <rect>
        16 12 2 3</rect></_>
    <_>
      <rect>
        16 13 1 1</rect></_>
    <_>
      <rect>
        16 14 1 1</rect></_>
    <_>
      <rect>
        16 14 2 2</rect></_>
    <_>
      <rect>
        16 16 1 1</rect></_>
    <_>
      <rect>
        17 1 2 7</rect></_>
    <_>
      <rect>
        17 2 2 7</rect></_>
    <_>
      <rect>
        17 4 1 3</rect></_>
    <_>
      <rect>
        17 8 1 5</rect></_>
    <_>
      <rect>
        17 11 2 3</rect></_>
    <_>
      <rect>
        18 0 1 1</rect></_>
    <_>
      <rect>
        18 0 2 1</rect></_>
    <_>
      <rect>
        18 0 2 2</rect></_>
    <_>
      <rect>
        18 3 2 4</rect></_>
    <_>
      <rect>
        18 4 2 5</rect></_>
    <_>
      <rect>
        18 6 2 6</rect></_>
    <_>
      <rect>
        18 15 2 3</rect></_>
    <_>
      <rect>
        18 16 2 1</rect></_>
    <_>
      <rect>
        18 18 2 2</rect></_>
    <_>
      <rect>
        18 21 2 1</rect></_>
    <_>
      <rect>
        19 0 1 1</rect></_>
    <_>
      <rect>
        19 14 1 2</rect></_>
    <_>
      <rect>
        20 0 1 1</rect></_>
    <_>
      <rect>
        20 10 1 4</rect></_>
    <_>
      <rect>
        20 11 1 2</rect></_>
    <_>
      <rect>
        20 15 1 1</rect></_>
    <_>
      <rect>
        20 20 1 1</rect></_>
    <_>
      <rect>
        20 21 1 1</rect></_>
    <_>
      <rect>
        21 0 1 1</rect></_>
    <_>
      <rect>
        21 0 1 2</rect></_>
    <_>
      <rect>
        21 3 1 1</rect></_>
    <_>
      <rect>
        21 3 1 2</rect></_>
    <_>
      <rect>
        21 7 1 4</rect></_>
    <_>
      <rect>
        21 8 1 1</rect></_>
    <_>
      <rect>
        21 10 1 1</rect></_>
    <_>
      <rect>
        21 12 1 2</rect></_>
    <_>
      <rect>
        21 13 1 1</rect></_>
    <_>
      <rect>
        21 14 1 2</rect></_>
    <_>
      <rect>
        21 18 1 1</rect></_></features></cascade>
</opencv_storage>
